0.775 -1.0 5.03610552e-16
0.875 -0.85 5.20177464e-16
0.825 -0.75 3.575230533e-14
0.925 -0.7 7.1244964e-15
0.975 -0.85 1.2530304e-17
1.075 -0.75 9.008352e-18
1.025 -0.65 1.3638425834e-14
0.625 -0.85 2.43939684597e-12
0.675 -0.95 1.1315762088e-14
0.725 -0.85 5.845390028e-14
0.925 -0.55 3.48703755154e-13
1.075 -0.9 3.36384e-19
0.575 -1.05 3.36384e-19
0.525 -0.95 8.86820355e-14
0.925 0.65 2.65210008526e-13
1.025 0.5 1.71247393582e-13
1.025 0.6 2.1736854573e-14
0.925 0.55 4.65508099252e-13
0.825 0.55 8.4320956154e-11
0.825 0.65 3.83141943358e-12
1.075 0.7 7.36176e-18
0.675 0.55 1.09124707e-09
0.825 0.75 4.06996600899e-13
0.975 0.75 1.5944411871e-14
0.725 -0.75 2.78638195585e-12
0.625 -0.75 1.72866697617e-11
0.825 -0.65 1.85982720871e-12
0.625 -0.65 1.10270400437e-10
0.725 -0.65 2.87796230801e-11
0.825 -0.55 9.47065121972e-12
0.975 -0.45 2.70980855915e-13
0.925 -0.35 1.75169579634e-12
1.125 -0.6 6.86381052e-16
1.175 -0.7 7.662816e-18
1.275 0.2 7.2841676576e-14
1.225 0.1 1.27362164822e-13
1.075 0.2 2.7992920639e-12
1.175 1.38777878078e-17 2.55509163558e-13
1.425 0.25 5.496769504e-15
1.325 0.1 4.355062705e-14
1.225 0.3 3.3902578336e-14
1.425 0.05 5.5577676216e-14
1.325 0.35 3.41418442e-15
1.175 0.2 2.38821821862e-12
1.325 -0.05 3.2960868872e-14
1.225 -0.2 3.1106183444e-14
1.075 -0.2 1.647764823e-12
1.075 -0.05 9.13217163995e-12
1.425 -0.1 6.753064028e-15
1.225 -0.1 1.16872991724e-13
1.125 -0.3 6.60378764204e-13
0.975 -0.15 2.39163272685e-11
1.525 0.05 1.380277096e-15
0.725 -0.5 3.95898040248e-10
0.775 -0.4 5.68435197677e-10
0.875 -0.45 3.07496330693e-11
1.075 -0.4 1.75377293941e-13
1.175 -0.5 4.4747686e-16
1.025 -0.3 3.32604833978e-12
0.425 -0.9 7.08470917351e-12
0.525 -0.8 7.01298899694e-11
-1.375 1.05 8.43643801349e-11
-1.425 0.9 5.78465619128e-09
-1.425 1.15 2.70048816652e-12
-1.625 1.05 2.46839037171e-12
-1.575 0.95 1.22785266107e-09
-1.525 1.1 7.0219875417e-13
-1.475 1.0 1.23440681083e-10
-1.525 1.2 4.2573094346e-14
-1.275 1.2 2.1256837282e-14
0.925 -0.05 2.13302804074e-10
1.025 0.1 5.65103017321e-11
0.525 -0.7 3.36583197447e-10
0.025 1.1 9.27291050878e-13
0.225 1.0 2.50704911563e-11
-0.125 1.0 1.78793449928e-09
0.075 0.95 1.77736692584e-10
0.125 1.05 1.72937992581e-12
0.125 1.15 5.2581296674e-14
0.225 1.1 2.9036073426e-14
0.025 0.85 1.53089059556e-08
0.325 0.85 6.99199282559e-10
0.325 1.05 1.62012072399e-12
0.325 0.95 7.29919007147e-11
0.125 0.85 5.70665273881e-10
-0.175 1.1 3.44802450334e-10
0.225 0.9 2.2939878589e-10
-1.625 1.15 4.13480026827e-13
-1.625 0.85 4.00349351116e-09
-1.725 1.1 1.3746105912e-14
-1.525 0.8 4.37106085983e-08
-1.725 0.95 2.47685472223e-11
-1.725 1.2 2.4006925322e-14
0.625 -0.55 2.23005697185e-09
0.075 0.75 5.09464601439e-08
-0.125 0.85 4.83677083918e-08
0.225 0.8 3.94623522027e-09
1.125 0.1 1.46673135831e-12
0.925 0.15 1.27221232126e-10
0.975 0.25 2.40942082217e-11
0.375 -0.7 5.61754289794e-09
0.325 -0.8 1.16409134919e-09
0.325 -0.9 4.31081517138e-11
0.225 -0.75 5.27838253463e-09
0.225 -0.85 4.4034559518e-09
0.075 -0.95 3.77139786346e-10
0.275 -1.0 1.65109134415e-11
0.125 -1.05 4.5663907044e-14
0.375 -1.05 2.0011180896e-14
0.125 -0.8 6.7128470214e-09
0.875 0.3 2.27925658609e-10
0.875 0.45 3.34413215959e-11
0.775 0.35 2.5186796309e-09
1.075 0.4 1.42192970803e-12
0.875 -0.25 2.23946381059e-10
0.825 -0.15 4.63023629438e-10
0.775 -0.25 2.76927024139e-09
-1.775 -0.85 5.46465746842e-10
-2.075 -0.9 8.571050397e-14
-1.875 -0.8 1.75314621853e-10
-1.975 -0.65 1.36809443452e-09
-1.975 -0.8 2.73336989434e-11
-1.925 -0.9 5.75571331234e-12
-1.825 -1.0 6.46432294396e-12
-2.075 -0.75 1.18418738138e-11
-1.825 -0.7 6.73901069227e-09
-1.975 -1.0 4.21844127167e-12
0.625 -0.4 1.2582648074e-08
0.675 0.8 4.43873614161e-12
0.725 0.65 6.05704983295e-11
0.625 0.7 2.81245213672e-10
0.575 0.6 1.32850591281e-09
0.725 0.45 1.26354093988e-09
1.125 0.3 1.64216143266e-12
-1.225 0.9 1.6892190512e-07
-1.825 0.9 2.58561641077e-11
-1.725 0.85 4.60880228821e-10
-1.325 0.9 2.87706412745e-08
-1.125 0.9 3.12833084856e-07
-1.225 1.0 9.83884581639e-09
-1.275 1.1 3.58804392421e-11
-1.075 1.0 2.47873783585e-08
-1.175 0.8 2.11597858767e-06
0.875 0.05 9.64053964378e-10
0.175 -0.65 2.62756719379e-07
0.325 -0.6 1.38747077346e-07
0.775 -0.05 7.78576742042e-09
0.025 -0.7 3.14144555204e-07
-0.025 -0.85 1.46680295754e-08
0.025 -0.6 1.57734007105e-06
-0.125 1.2 5.84258707256e-13
-0.275 1.2 2.21799139953e-11
-0.275 1.05 3.25349901844e-09
0.675 -0.3 1.29177356917e-08
0.525 0.75 4.71012176566e-10
0.475 0.9 4.27268262861e-11
0.425 0.8 1.78602016916e-09
0.575 0.85 3.86979977282e-11
0.625 0.95 4.9905744167e-12
0.775 0.85 1.8664326174e-13
0.425 0.7 3.49037344569e-09
0.725 0.95 6.221442058e-14
-0.125 -0.95 1.28378068526e-08
-0.275 -1.0 5.38881773165e-09
-0.175 -1.1 1.73815996789e-10
-0.275 -0.85 2.66591294345e-07
-0.375 -0.9 8.81601186782e-09
-0.075 -1.05 4.00467327504e-13
-0.375 -1.1 7.83506265974e-10
-0.275 -1.15 2.80773253895e-11
-0.175 -1.2 6.6744554584e-14
-2.225 -0.5 2.75536893565e-10
-2.175 -0.7 4.12402238673e-12
-2.025 -0.55 1.3692364015e-09
-2.125 -0.6 2.92290181635e-10
-1.875 -0.55 2.16388191502e-08
-2.075 -0.4 2.44154332868e-08
-2.275 -0.6 2.36075346481e-12
-1.975 -0.45 2.5987191235e-08
0.725 0.2 8.60069765192e-09
0.675 0.35 1.36868815364e-08
0.625 0.45 1.12786294852e-08
-1.375 0.8 2.00594079867e-07
-2.075 0.75 3.19309421004e-11
-1.975 0.8 5.56876816339e-11
-2.125 0.65 5.48212504485e-11
-1.975 0.7 1.31341222182e-09
-1.975 0.6 3.29172708215e-09
-1.825 0.65 3.59807377656e-08
-2.225 0.75 1.35986761557e-13
-1.875 0.8 9.47283718222e-11
0.825 0.2 2.15742517718e-09
-1.675 -0.9 2.36692443081e-09
-1.675 -0.8 1.41842811834e-08
-1.725 -1.0 4.46245482711e-11
-1.875 -0.4 1.01405795004e-06
-1.775 -0.6 3.92248357333e-08
-1.675 -0.5 5.66323847298e-06
-1.775 -0.25 8.41675225208e-06
-1.725 -0.35 1.21469695025e-05
-1.525 -0.85 3.32349694186e-08
-1.725 -0.7 9.66076937351e-08
0.275 0.65 4.13213171864e-08
0.675 -0.1 8.0861236114e-08
-2.075 0.45 2.7341353382e-09
-2.175 0.4 3.82414485216e-09
-2.275 0.3 6.54577473301e-11
-2.225 0.5 1.3770866788e-10
-2.325 0.45 1.19588330606e-11
-1.975 0.4 8.0749142185e-08
-2.225 0.6 2.46214772364e-11
-2.125 0.3 5.91361365131e-09
-2.125 0.55 1.53049484577e-10
-2.025 -0.05 2.03238892399e-07
-2.175 -0.15 1.13753999422e-08
-2.325 -1.38777878078e-17 1.75145829604e-10
-2.275 -0.25 5.87133031621e-10
-2.275 -0.1 2.11622071647e-09
-1.975 -0.2 3.77908130533e-07
-1.875 -0.15 1.09213760052e-06
-2.425 -0.2 5.30133620278e-13
-2.075 -0.25 3.5814141794e-08
-1.925 -0.05 1.45911183525e-06
0.525 -0.6 9.76483417037e-10
0.475 -0.5 1.32986752304e-08
-1.475 -0.95 4.00666311431e-09
-1.575 -0.75 1.24499143874e-07
-1.625 -1.0 5.64239469681e-10
-1.375 -0.75 2.12734520364e-06
-1.525 -0.65 5.15687217147e-06
0.175 0.7 7.12050098423e-08
0.375 -0.5 2.21124601541e-07
0.475 0.6 2.94763866845e-08
0.525 0.5 2.94693572905e-08
0.775 0.1 1.11826809279e-08
0.525 -0.4 4.52124069773e-08
-2.275 -0.4 2.3895588922e-11
-2.175 -0.35 3.03012212903e-09
-0.425 0.95 9.48434333007e-08
-0.375 0.85 2.7346341396e-07
-0.275 0.95 3.45540284356e-08
-0.375 1.1 1.62261175772e-09
-0.275 0.8 4.06714896089e-07
-0.575 1.1 3.75875893152e-09
-0.475 1.15 8.92700437667e-10
-0.475 1.05 1.36230182192e-08
0.575 0.3 8.79576966733e-08
-1.675 0.75 2.46802703567e-08
-1.775 0.75 6.60624295893e-09
-0.725 -0.45 0.00394928428115
-0.525 -0.55 0.000341221006373
-0.625 -0.55 0.000347011074109
-0.625 -1.1 1.21616702716e-09
-0.725 -1.05 3.83429815668e-09
-0.625 -1.0 3.35751404055e-08
-0.675 -0.65 8.42464402036e-05
-0.775 -0.6 0.000444034138232
-0.825 -1.05 6.99374734437e-09
-0.725 -1.15 6.42050257866e-12
-0.625 -0.9 2.54315368516e-07
-0.525 -1.0 1.92444893538e-08
-0.525 -0.65 2.15604287979e-05
-0.675 -0.75 1.31210024585e-05
-0.525 -1.15 9.1664287177e-10
0.575 -0.25 5.01199286014e-08
-0.925 -0.95 1.22036125794e-07
-0.925 -1.05 4.79671413548e-09
-0.775 -0.95 2.65561900367e-07
-0.825 -0.8 1.02767175203e-05
-0.975 -0.85 6.0452489116e-06
-0.825 -1.2 1.57525178885e-11
-1.025 -1.0 3.89217023295e-08
0.375 0.55 2.30500129411e-07
-1.925 0.5 5.06790266719e-08
-1.725 0.65 9.92104440636e-08
-1.775 0.55 9.5122087031e-07
-1.675 0.55 1.7330192449e-06
-2.175 0.2 3.55754119122e-09
-2.075 0.05 3.60148559434e-08
-1.975 0.25 2.14425638309e-07
-0.025 0.7 2.09061711635e-07
-1.375 -0.95 2.73631506611e-08
-1.525 -1.1 2.15661824507e-11
-1.625 -1.1 4.91258755381e-12
-1.425 -0.85 2.16494129475e-07
-1.325 -0.85 6.11654835153e-07
-1.475 -0.75 9.11975886235e-07
-1.425 -1.05 2.22047931959e-11
-1.775 -0.5 5.18556119537e-07
0.675 1.38777878078e-17 8.82393293479e-08
-0.125 -0.75 5.25654834301e-07
0.475 0.35 6.61486242749e-07
-0.125 -0.65 2.04149625236e-06
0.425 -0.35 7.30081148832e-07
-1.625 -0.6 9.00057390846e-07
-0.575 1.0 5.42387662397e-08
-0.725 1.05 1.16972730471e-08
-0.575 0.9 3.3535416183e-07
-0.525 0.8 3.76590065008e-06
-0.475 1.25 1.08395604088e-11
-2.175 1.38777878078e-17 4.12309069939e-09
-1.925 0.15 8.12835468637e-07
-2.325 0.1 6.92812399312e-10
-1.875 0.25 3.26049566475e-06
-2.425 0.15 2.49002204696e-11
-1.775 0.4 2.75589210468e-06
-2.025 0.15 1.44101438956e-08
0.625 0.15 9.51833421952e-08
0.225 -0.45 2.75560778382e-06
0.175 -0.55 7.55973593283e-07
0.125 0.6 5.63625132947e-07
-0.375 -0.75 4.83637152196e-06
-0.225 -0.7 2.4899757935e-06
-0.475 -0.85 7.37623077274e-08
-1.875 0.4 2.95722109148e-07
0.475 -0.25 6.80914289404e-07
0.375 0.4 8.57909038197e-07
0.475 0.2 9.04854637917e-07
0.225 0.55 1.58974462112e-06
-1.275 0.65 5.92833800191e-05
-1.275 0.75 5.63203094028e-06
-1.275 -0.95 1.33797515191e-08
-1.175 -1.0 7.64901470671e-08
-1.225 -0.75 1.52789495786e-05
-1.075 -0.85 1.68360999593e-06
-1.225 -0.85 9.96310043892e-07
-1.125 -0.75 1.36091969515e-05
-0.875 -0.7 6.47033411435e-05
-0.675 0.9 4.68767801753e-07
-0.825 0.95 3.19753752921e-07
-0.925 0.95 3.02309243868e-07
-0.775 0.85 4.58177294676e-06
-0.725 0.75 2.70713399293e-05
-0.725 1.15 6.10018334176e-10
-0.825 1.05 6.10018334176e-10
-1.575 0.7 3.04225825587e-07
-1.425 0.7 5.33347898145e-06
0.025 0.6 1.02319769678e-06
-0.125 0.7 1.48768942587e-06
-0.725 -0.85 4.01211967783e-06
-0.575 -0.8 6.24493489163e-06
-1.925 -0.3 4.54363033609e-07
0.525 -0.1 7.49577976417e-07
-1.775 0.25 3.5080360381e-06
0.325 -0.3 2.77836030767e-06
-1.425 -0.65 1.65823874289e-05
-1.525 -0.55 6.74552288999e-06
-0.625 0.8 3.8229888913e-06
-1.525 0.55 1.45869350123e-05
0.475 1.38777878078e-17 1.49208421633e-06
0.375 0.1 5.78164332526e-06
0.525 0.1 6.50699283179e-07
0.575 1.38777878078e-17 3.71634885424e-07
0.375 0.25 5.16023132965e-06
-1.125 0.7 1.29240796438e-05
-1.025 0.85 3.85488095665e-06
-1.825 -0.05 5.80760206522e-06
-0.225 0.65 1.03177814736e-05
-1.675 0.4 4.38716556843e-06
-0.075 -0.55 9.85909256337e-06
0.075 -0.5 7.44530577627e-06
-1.575 0.45 2.78398061022e-05
-0.425 0.75 6.50592017356e-06
-0.025 -0.45 3.64138797931e-05
0.075 0.45 8.84157104845e-06
0.175 0.4 7.87216625302e-06
-0.925 0.8 5.94832557371e-06
-0.975 1.05 7.72899408502e-09
-1.925 0.05 1.29625016408e-06
-0.975 -0.55 0.000663463466773
-1.025 -0.7 7.07433375057e-05
-1.425 -0.55 2.32057808913e-05
-1.325 -0.65 1.38912238249e-05
-1.575 -0.4 2.48306231711e-05
0.375 -0.2 3.46296369745e-06
0.275 0.45 2.6937149169e-06
-1.775 0.05 1.77072882428e-05
-1.725 -0.15 4.35644110748e-05
-1.725 -0.05 2.5548115128e-05
-1.825 0.15 3.51653776171e-06
-1.725 0.15 3.77963952812e-05
-1.375 0.6 5.15074779923e-05
-1.425 0.45 0.000156224125883
-0.325 0.7 2.24908231451e-06
-0.375 -0.65 7.78031687869e-05
0.175 -0.35 6.48416192436e-06
-1.225 -0.65 8.5177604421e-05
0.375 -0.05 7.51532260949e-06
0.275 0.1 2.48833332803e-05
-0.225 -0.6 1.03280950727e-05
-0.075 0.55 2.18722349443e-05
-0.225 0.55 3.40513717593e-05
-0.775 -0.7 0.000128482112885
-0.275 -0.5 0.000102349630626
-1.025 0.75 1.39337993175e-05
-0.675 0.65 0.000103092052717
-0.825 0.75 7.68539910878e-06
-1.475 -0.45 6.7348578076e-05
-0.425 0.65 6.77667132037e-05
-1.625 -0.3 0.000124557004983
0.225 -0.25 1.47702760297e-05
-0.825 0.65 0.000144010701319
-1.175 0.6 0.000179776209854
-0.925 0.7 3.39063107167e-05
-0.025 0.4 5.17119528361e-05
-0.175 -0.45 0.000147065914009
0.075 -0.3 1.76392295091e-05
0.275 -0.15 1.78481173826e-05
-1.625 0.3 6.94616768842e-05
-1.525 0.25 0.000218915770419
-1.625 0.15 0.000161622602383
-0.375 -0.55 8.7483137497e-05
0.225 0.2 4.79351265276e-05
0.275 0.3 1.08456948189e-05
-1.025 0.65 0.000111040369491
-0.325 0.6 1.71875949732e-05
-0.325 0.5 0.000248288430976
-0.425 0.55 0.000284245710031
-1.325 0.5 0.000343959417321
-1.325 -0.5 0.000228933535446
-0.575 0.65 6.36332427558e-05
-1.625 -0.15 0.000275510689646
0.125 0.3 5.2195958534e-05
0.225 -0.05 4.11015203851e-05
0.125 -0.2 3.82089471205e-05
-1.625 0.05 0.000292531308357
-0.825 0.55 0.000909964992419
-1.075 -0.6 0.000151686988589
-1.175 -0.5 0.000915878738672
-0.125 -0.35 0.000246517773895
-1.175 -0.35 0.00586189850974
-0.175 0.45 0.000194417319967
-0.225 0.35 0.000564485263605
-0.025 -0.3 9.34965181139e-05
0.125 0.1 0.000105362437364
-1.375 0.35 0.000921249414228
-1.475 0.35 0.000292374807785
-0.625 0.55 0.000550207275044
-0.075 0.3 0.000225043190694
0.075 -0.1 0.000185086848619
0.125 -1.38777878078e-17 7.14379537934e-05
-0.325 -0.4 0.000636725931926
-1.525 -0.3 0.000395084211839
-1.375 -0.4 0.000447229293023
0.025 0.25 0.000141169096225
-1.025 0.55 0.000444007858583
-0.925 0.6 0.000223008514309
-0.875 -0.6 8.01878724767e-05
-0.725 0.55 0.000904173113715
-1.225 0.5 0.000380602215306
-1.075 -0.5 0.00203839801593
-0.525 0.5 0.00119311725675
-1.075 0.45 0.00305195840778
-1.475 -0.15 0.00110707207391
-1.425 -0.05 0.0024951854365
-1.525 -0.05 0.000480458998403
0.025 -1.38777878078e-17 0.000244334604722
-0.075 -0.1 0.000591166361929
0.025 -0.2 0.000154789857249
-0.375 0.4 0.00124017945615
-1.275 -0.4 0.000543535305914
-0.925 0.45 0.00312816948101
-0.875 -0.5 0.00268913528351
-1.425 -0.3 0.00076301113104
-0.225 -0.3 0.000559532530015
-0.175 0.25 0.000817333905353
-0.025 0.15 0.000170896468613
-1.275 0.3 0.00312261504508
-1.425 0.25 0.000966731526325
-0.575 -0.45 0.00168426019035
-0.425 -0.45 0.00101812972213
-0.125 0.15 0.000650320873234
-1.525 0.05 0.000823640596811
-1.425 0.05 0.00220484259223
-1.475 0.15 0.00148870701435
-0.625 0.4 0.003104010746
-1.325 0.2 0.00558709964881
-0.325 -0.25 0.00213902053415
-0.075 0.05 0.000958552291468
-0.175 -0.05 0.000825032103312
-0.175 -0.2 0.00102768332412
-0.325 0.3 0.00172933090277
-1.025 0.35 0.00796534689484
-0.975 -0.4 0.00686748932465
-0.825 -0.4 0.00590480089967
-1.325 -0.3 0.00215151342607
-0.475 0.3 0.00578230856384
-0.825 0.4 0.00504059760542
-0.275 0.15 0.00211482596752
-0.225 0.05 0.0020744805645
-0.525 -0.35 0.0019145859163
-1.175 0.4 0.0037073887065
-0.425 -0.3 0.00322649990729
-1.075 -0.35 0.0110646450674
-1.175 -0.2 0.0125722510361
-1.375 -0.2 0.00236452417651
-0.275 -0.1 0.00306812918631
-1.325 1.38777878078e-17 0.0062302859981
-1.225 0.05 0.0108786510341
-0.375 -0.15 0.00630409611582
-1.175 0.2 0.0102036017624
-1.325 -0.1 0.00491338403543
-0.375 0.1 0.00485925100742
-0.425 0.2 0.00625481368902
-0.875 0.3 0.0129100971372
-1.075 0.25 0.0131816818305
-0.725 0.35 0.00882161809363
-0.575 0.3 0.0073321740352
-0.675 0.2 0.0251178074124
-1.275 -0.2 0.00522843457461
-0.775 -0.25 0.0208618595704
-0.875 -0.3 0.0167601663423
-0.325 -1.38777878078e-17 0.00486590165633
-0.675 -0.25 0.00971436647528
-0.475 -0.2 0.00995093066825
-0.575 -0.25 0.00951378983824
-1.225 -0.1 0.0176751237456
-0.475 0.05 0.0128771753362
-0.625 -0.35 0.00596650737686
-0.825 0.2 0.0355162090856
-0.525 -0.05 0.0245731511339
-0.725 -0.15 0.0257179991264
-0.975 0.2 0.0193462497294
-0.975 -0.25 0.0243061232071
-0.625 -0.15 0.0147694171743
-0.525 0.15 0.0138774798868
-0.675 0.05 0.038179516386
-0.575 0.05 0.0176159034054
-0.625 -0.05 0.0259982055193
-1.075 -0.15 0.0267947057412
-1.125 0.1 0.0262043680949
-0.775 0.05 0.0316469049518
-1.125 -1.38777878078e-17 0.02814562669
-0.875 -0.1 0.0535447156972
-1.025 0.1 0.0308812956815
-0.975 -0.1 0.0220485411025
-1.025 -1.38777878078e-17 0.030853311705
-0.925 0.1 0.0388525367968
-0.875 1.38777878078e-17 0.0495783245365
-0.775 -0.05 0.0408199904941
