0.575 0.4 9.4599922e-11
0.575 0.25 3.840728319e-09
0.725 0.4 5.008e-14
0.475 0.45 3.901622e-10
0.675 0.3 1.02772076e-10
0.675 0.1 1.414844419e-09
0.775 0.2 6.18801e-12
0.475 0.3 1.1569244394e-08
0.575 0.55 1.5464167e-11
0.575 -0.5 8.46e-13
0.475 -0.5 3.204036e-12
0.625 -0.65 4.2048e-14
0.425 -0.35 3.4521793383e-08
0.475 -0.65 4.86072e-13
0.525 -0.3 1.89557674e-10
0.425 -0.2 1.10103973422e-07
0.325 -0.4 2.31542938492e-07
0.625 -0.35 1.03442698e-10
0.675 -0.45 9.13836e-13
0.325 -0.6 2.802082184e-09
0.825 -0.1 1.4663912e-11
0.725 1.38777878078e-17 1.06628066e-10
0.675 -0.1 1.27352876e-10
0.925 1.38777878078e-17 3.3804e-13
0.825 0.05 2.8186948e-11
0.575 -0.05 2.755745759e-09
0.775 -0.2 1.6610568e-11
0.675 -0.2 8.9563113e-11
0.275 -0.25 9.3640394389e-07
0.575 -0.15 4.10066908e-09
0.725 -0.35 2.544072e-12
0.825 0.3 9.204872e-12
0.525 0.1 1.997183883e-08
0.475 -0.05 7.1999068871e-08
-0.225 0.8 7.2478931672e-08
-0.125 0.75 3.7200135831e-08
-0.125 0.6 7.08145005833e-07
-0.025 0.85 5.591692076e-09
-0.125 0.9 5.4221659e-11
-0.225 0.65 8.09340184994e-07
0.025 0.75 1.0907467419e-08
0.075 0.9 2.0724245e-11
-0.275 0.9 2.5563803e-11
-0.125 0.5 1.07031808269e-05
0.375 -0.1 2.93481227418e-07
0.125 0.7 3.67990375e-09
0.175 0.8 5.16850841e-10
0.025 0.65 7.5130695567e-08
0.125 0.6 5.2949581136e-08
0.275 0.55 7.265736976e-08
0.325 0.7 4.80133282e-10
0.225 0.65 8.307076632e-09
0.425 0.65 4.30271902e-10
0.425 0.05 3.92934761152e-07
0.425 0.2 5.528159021e-08
0.025 0.55 5.524783135e-07
0.125 0.5 6.44346479718e-07
-1.475 0.85 1.63644118e-10
-1.475 0.75 1.2894002036e-08
-1.225 0.85 6.510378558e-09
-1.575 0.75 3.540982586e-09
-1.375 0.55 3.70197881978e-06
-1.325 0.8 4.2989082975e-08
-1.425 0.95 2.9753476e-11
-1.325 0.7 3.52336593487e-07
-1.325 0.9 5.9506952e-11
-1.425 0.65 3.3750471713e-07
-1.225 0.75 5.66035320341e-07
-1.125 0.8 7.24917931118e-07
0.325 0.45 1.72927928749e-07
0.225 0.35 1.84529066124e-06
0.425 0.55 5.926898083e-09
0.375 0.35 1.62266843715e-07
-0.375 0.75 1.41557522968e-06
-0.325 0.6 7.0324908889e-06
0.175 -0.2 5.51230261639e-06
0.225 -0.35 5.20488194402e-07
0.275 -0.05 3.31068760722e-06
-1.675 0.5 1.50020295257e-07
-1.625 0.35 1.79392543818e-06
-1.575 0.5 3.99630855395e-07
-1.575 0.6 1.33325123723e-07
-1.725 0.4 7.3633711772e-08
-1.775 0.65 2.5485006e-11
-1.775 0.55 4.253122526e-09
-1.525 0.4 9.68478337508e-06
-1.675 0.6 1.7753549865e-08
-1.875 0.45 8.20042498e-09
-1.675 0.25 2.36531112819e-06
0.125 -0.6 7.8152018262e-08
0.025 -0.7 3.1347038722e-08
-0.125 -0.65 4.41537880154e-07
-0.125 -0.75 2.61819557875e-07
-0.025 -0.55 1.6033158793e-06
-0.075 -0.45 2.605984004e-05
0.075 -0.45 2.05011834104e-06
0.175 -0.5 6.6359346097e-08
0.225 -0.65 2.4584146173e-08
0.375 -0.7 8.2883892e-11
0.375 -0.5 1.837271544e-09
-0.025 0.45 7.22744079037e-06
0.275 0.1 4.57200653342e-06
-1.675 -0.65 1.8582920802e-08
-1.525 -0.65 1.91623209059e-07
-1.575 -0.55 2.77170271507e-07
-1.725 -0.55 1.0138651142e-08
-1.525 -0.45 2.61208852708e-06
-1.475 -0.55 2.28717167387e-06
-1.625 -0.45 4.5577033484e-07
-1.625 -0.75 6.34892622e-10
-1.825 -0.6 1.450612317e-09
-1.425 -0.7 2.50943017306e-07
0.325 0.2 1.15265635521e-06
-1.375 -0.6 3.07067771161e-06
-1.825 0.0 1.26894777489e-07
-1.725 0.1 8.90148684711e-07
-1.625 -0.1 1.64196330336e-05
-1.725 -0.05 1.57688282082e-06
-1.875 -0.15 6.8706892316e-08
-1.875 0.1 1.8857301796e-08
-1.775 -0.15 1.65067415802e-07
-1.525 0.0 9.79041531549e-05
-1.675 -0.2 1.71499084969e-06
-1.925 -1.38777878078e-17 8.409702496e-09
0.175 -0.75 1.85288712e-10
0.025 -0.35 2.07149469867e-05
0.125 -0.3 1.00940323237e-05
-1.325 -0.1 0.00131463234562
-1.675 -0.35 1.24495996568e-06
-1.775 -0.35 1.6370011215e-07
-1.575 -0.2 2.10074879313e-05
-1.875 -0.3 1.8236146501e-08
-1.825 -0.45 6.216562368e-09
-1.525 -0.1 7.05025907191e-05
-1.475 -0.3 3.49660238576e-05
-1.425 -0.05 0.000380531453104
-1.425 -0.2 0.000292518311326
-0.225 -0.55 3.14519484058e-05
-0.275 -0.65 9.00928642774e-06
-0.375 -0.55 5.15680371726e-05
-0.475 -0.6 1.19355263964e-05
-0.375 -0.7 1.62812713555e-06
-0.325 -0.45 0.000145871796951
-1.575 -0.35 2.25965059196e-06
0.125 -0.1 2.47872255333e-05
0.175 0.15 1.63488369042e-05
0.175 0.0 2.80030703151e-05
-1.425 -0.45 2.63607537413e-05
-1.225 0.55 6.201802478e-05
-1.225 0.65 9.67844315213e-06
-1.475 0.55 3.99147291488e-06
-1.125 0.65 2.22731331799e-05
-1.425 0.45 2.11337717307e-05
-1.275 0.45 0.00018502735364
-1.775 0.2 3.19605159175e-07
-1.625 0.15 1.66771794216e-05
-1.625 1.38777878078e-17 9.80844501457e-06
-1.875 0.25 7.6061943712e-08
-0.475 0.8 6.96191138328e-07
-0.375 0.85 3.1288963904e-07
-0.425 0.65 1.09691504613e-05
0.075 0.4 8.14535697935e-06
0.125 0.3 7.60984819308e-06
-1.125 -0.85 6.51864478854e-07
-1.025 -0.75 2.31412294698e-06
-1.025 -0.9 2.7260792804e-08
-0.875 -0.8 2.61877238066e-06
-1.125 -0.7 1.09178609804e-05
-0.775 -0.8 4.99268012367e-07
-0.925 -0.7 2.9110464096e-05
-1.025 -0.65 3.66711448355e-05
-1.275 -0.85 5.8875933695e-08
-1.225 -0.7 3.96553248218e-06
-1.225 -0.6 6.17540982521e-06
-1.125 -0.6 2.28004087239e-05
-1.325 -0.7 3.39859065035e-07
-1.125 -0.5 0.000644248013562
-0.825 -0.9 3.0511317249e-07
-0.675 -0.9 4.9829190155e-08
-0.575 -0.75 2.9014968154e-06
-0.575 -0.9 1.11905114922e-07
-0.725 -0.65 0.000100670597813
-0.575 -0.65 1.69669199426e-05
-0.425 -0.8 6.17808538067e-07
-0.675 -0.75 1.73639413469e-05
-0.825 -0.7 2.62232786947e-05
-0.725 -0.5 0.000864279623775
-0.825 -0.6 8.83050890428e-05
-1.375 0.35 6.3004399044e-05
-1.175 0.45 0.000534892644829
0.025 -0.15 8.21641185876e-05
-0.025 -0.25 8.47347404776e-05
-1.825 0.35 1.69990396699e-07
-1.575 0.25 1.72362432732e-05
-0.575 0.65 5.56304319359e-05
-0.325 0.5 9.70743706718e-05
-0.575 0.75 7.89136763688e-06
-1.425 0.25 0.000161754007064
-1.475 0.15 0.000120289758959
-0.575 -0.45 0.000854029931729
-0.525 -0.35 0.00781150946647
-0.675 -0.4 0.00476920985539
-0.575 0.85 1.07496339339e-06
-0.625 -0.25 0.0168085111769
-0.375 0.95 4.1732764804e-08
-0.625 0.95 4.1732764804e-08
-0.475 -0.5 0.00036512353893
-0.475 0.9 4.24237240558e-07
-1.325 -0.5 2.83866868827e-05
-1.225 -0.5 0.000105068765785
-1.025 0.6 6.17020923111e-05
-1.125 0.55 0.000231010293861
-1.475 -0.8 7.3871545029e-08
-1.375 -0.8 1.2549197917e-07
-0.225 0.55 3.67381852e-05
-0.475 0.55 0.000295531786324
-0.225 0.4 0.000478845854288
-1.025 0.5 0.000708044946524
-0.925 0.75 5.42450600102e-06
-1.025 0.7 2.29038472262e-06
-0.775 0.8 2.0694778059e-06
-0.925 0.65 0.000144224676745
-1.025 0.8 3.42259282751e-06
-0.725 0.65 0.000174452811538
-0.825 0.65 2.95839430675e-05
-0.925 0.55 0.000453907184448
-0.075 0.35 6.10784404704e-05
-1.025 -0.55 0.000315810855896
-0.925 -0.6 3.11460106265e-05
-1.375 -0.3 0.000667820634988
0.075 0.2 2.78026401003e-05
0.025 0.1 9.91454860362e-05
-0.675 0.75 2.43093016236e-06
-1.425 0.05 0.000568591379886
-0.575 0.55 0.000364181901868
-0.625 -0.55 0.000376061638432
-0.425 -0.9 3.3372277292e-08
-0.125 0.25 0.000305349349391
-0.025 0.25 0.000124989885758
-0.925 -0.5 0.00118143032389
-0.275 -0.75 4.88012300816e-07
-0.725 0.55 0.000387703164035
-0.775 0.9 3.70979923744e-07
-0.825 0.55 0.000190446982232
-0.675 0.85 1.8063817951e-06
-0.875 0.85 3.54223678071e-07
-1.375 0.15 0.000798705851783
-1.275 0.3 0.0013014642609
-0.175 -0.3 0.00036918881976
-0.125 -0.2 0.000236449905767
-0.225 -0.4 0.000309723667388
-0.825 -0.5 0.00113677394945
0.075 -1.38777878078e-17 6.9053871364e-05
-0.375 0.4 0.00125730219298
-1.275 -0.4 0.000435952030901
-0.075 0.05 0.000431701668561
-0.875 0.45 0.00125504655075
-0.075 -0.1 0.000342865354239
-0.075 0.15 0.000189720018131
-0.425 -0.4 0.00111260110285
-1.325 0.05 0.00304302219719
-0.675 0.45 0.00349489401657
-0.775 0.45 0.00244005127744
-1.225 -0.3 0.00300805800616
-1.125 -0.35 0.00277475987811
-1.275 -0.2 0.0033807804333
-0.225 -0.15 0.000774330420273
-0.375 -0.3 0.00249751364003
-1.025 -0.4 0.0026388371288
-1.225 0.2 0.00408856046674
-0.825 0.35 0.00960820219418
-0.225 0.2 0.00179332007785
-0.175 0.1 0.00107297668691
-0.175 -0.05 0.00120611501006
-0.775 -0.4 0.00361899646049
-0.275 -0.25 0.00240034892147
-0.525 0.4 0.00221632930917
-1.125 0.35 0.00376969411603
-0.975 0.4 0.00280910289606
-0.325 0.25 0.00257193258355
-1.225 -0.05 0.00857489790001
-0.475 0.3 0.00749851447977
-1.125 -0.15 0.016326965324
-0.275 0.05 0.00460914550178
-0.425 -0.2 0.00730801038778
-0.675 0.3 0.0168902822529
-0.875 -0.4 0.00502232702728
-0.925 0.3 0.0153259118133
-1.025 0.3 0.00818608076984
-0.975 -0.3 0.0104674973165
-1.075 -0.25 0.00872307929544
-0.425 0.2 0.00881556868724
-0.325 -0.1 0.00584486578717
-1.125 0.15 0.0117092194346
-0.825 -0.3 0.01856928675
-1.225 0.05 0.00504026365605
-1.025 0.15 0.0216569079603
-0.575 0.2 0.0140873131652
-1.125 1.38777878078e-17 0.0220374854662
-0.375 0.1 0.00727891550072
-0.875 0.2 0.0364902321301
-0.475 0.05 0.0284700268542
-0.425 -0.05 0.0182327341555
-0.525 -0.15 0.0146945202173
-0.725 -0.3 0.0112765801252
-1.025 -0.15 0.0291799450578
-0.775 0.2 0.0193996739889
-0.775 0.05 0.0643004869672
-0.975 1.38777878078e-17 0.0455849409405
-0.625 0.05 0.0350744875907
-0.675 0.15 0.038319807217
-0.575 -0.05 0.0338978236265
-0.925 -0.2 0.0245071038489
-0.775 -0.2 0.0337033171715
-0.875 -0.1 0.0455225438989
-0.675 -0.1 0.0399623095209
-0.925 0.1 0.03281483821
-0.875 0.0 0.0548409027884
-0.775 -0.05 0.0570375704333
