1.125 -0.8 1.66469452095e-16
1.075 -0.9 1.5281180776e-15
0.975 -0.85 3.33880421188e-13
1.225 -0.85 9.5849815566e-18
1.225 -0.95 3.5194176e-20
1.125 -0.7 1.08445471795e-14
1.325 -0.95 1.49606784e-20
1.325 -0.85 1.69406208e-20
1.125 -1.0 2.42148542582e-17
1.225 -0.75 3.88685083924e-15
1.375 -0.75 3.66410450206e-17
1.275 -0.65 5.91965738968e-16
1.025 -0.75 1.85221554615e-14
1.175 -0.6 5.21123228904e-15
1.125 0.65 1.32899155407e-13
1.075 0.55 5.89864090328e-12
1.175 0.5 7.725537049e-13
1.225 0.4 8.71022032548e-13
1.225 0.65 2.73795176006e-15
1.175 0.8 2.5691435981e-15
1.275 0.55 7.3231258826e-15
1.375 0.55 1.9091673714e-16
1.475 0.7 5.889408e-21
1.275 0.8 6.37618282517e-16
1.325 0.65 1.17525299256e-15
0.925 -0.7 2.01317678662e-12
1.075 -0.6 3.51072575724e-13
0.975 -0.6 1.27020364214e-11
1.425 -0.65 7.09708651596e-17
1.375 -0.55 2.89164620142e-16
1.275 -0.55 1.03791651654e-14
1.225 -0.4 1.69165681069e-13
1.475 -0.55 1.7546979592e-18
1.325 -0.45 5.10868094028e-15
1.425 -0.4 2.88904253295e-15
1.525 -0.45 1.8441293832e-18
1.125 -0.45 8.11878086462e-12
1.375 -0.3 1.69446914007e-14
1.675 0.1 6.9590098686e-16
1.525 0.25 6.40568971653e-15
1.575 0.4 3.31916777992e-16
1.775 0.2 6.20336225472e-17
1.675 0.25 5.42757755614e-16
1.725 0.35 1.24923727096e-17
1.575 0.1 1.71232092083e-15
1.875 0.2 5.496769504e-19
1.825 0.35 1.0993539008e-18
1.475 0.45 1.80314291122e-16
1.325 0.4 8.26918989281e-13
1.425 0.3 3.2632079594e-14
1.475 0.6 8.0949571064e-18
1.325 0.2 1.95371977341e-13
1.125 0.35 7.98058915393e-12
1.275 0.3 4.55328174315e-13
1.175 0.25 1.1637679904e-11
0.875 -0.95 2.33699568841e-14
0.825 -0.75 2.82520193804e-12
0.975 -1.0 1.52380516704e-15
0.775 -0.85 2.18595336726e-12
0.725 -1.0 1.00437392717e-13
1.425 -0.2 6.03218530611e-14
1.575 -0.25 1.51661938379e-16
1.275 -0.15 4.00859021097e-12
1.525 -0.1 1.18130162203e-14
1.625 -0.15 1.78327738041e-16
1.425 -0.05 1.00590361751e-13
0.575 -0.9 8.74525981691e-12
0.675 -0.85 2.04715172499e-11
0.575 -1.0 1.34016768727e-12
0.675 -0.75 6.1194466417e-11
0.475 -0.95 8.23923914602e-11
0.875 -1.1 2.25849309552e-17
-1.675 1.15 3.13124040444e-13
-1.625 1.3 1.61915054235e-15
-1.575 1.15 1.53094119224e-12
-1.875 1.1 8.9729019011e-13
-1.975 1.1 4.96136993974e-16
-1.875 1.0 4.12953430846e-11
-2.125 1.05 3.11806320432e-14
-1.825 1.2 2.88723003194e-15
-2.075 0.95 4.22701460665e-12
-1.725 1.25 6.57352271127e-15
-1.875 1.35 3.39777281106e-17
-1.975 0.9 9.80143287096e-11
-1.925 1.2 6.82289772158e-16
-1.775 1.35 5.18053032325e-16
0.725 -1.1 4.26391065017e-15
-1.725 1.0 2.2006971836e-10
-1.975 1.0 9.20980908105e-13
-1.625 1.05 1.06522916717e-10
-2.075 1.15 1.23714953208e-17
-1.775 1.1 1.77846511198e-12
-1.775 0.9 1.01910064242e-09
1.475 0.15 1.68715180253e-14
1.525 1.38777878078e-17 4.38908721381e-15
1.625 1.38777878078e-17 1.60163086594e-15
1.725 1.38777878078e-17 3.92438564757e-16
1.425 0.05 8.80571132971e-14
-2.175 -0.8 7.02982419691e-12
-2.075 -0.85 3.18306429147e-11
-2.175 -0.9 1.9068158926e-13
-2.325 -1.0 4.2855251985e-17
-2.075 -0.95 7.00727597249e-13
-2.125 -1.05 2.67598614192e-14
-2.175 -0.7 3.96045401227e-11
-2.275 -0.85 1.0370682325e-13
-2.275 -1.1 1.13277735691e-14
-2.425 -0.95 2.7873793336e-15
-1.275 1.05 3.27957920722e-09
-1.375 1.1 9.42665206866e-10
-1.175 1.05 9.61237679236e-09
-1.125 1.15 3.76784057682e-10
-1.375 1.2 1.15092004825e-12
-1.325 1.3 9.27059055007e-16
-1.225 1.15 3.78308469715e-10
-1.175 1.25 2.27399992447e-11
-1.225 0.95 2.53337373904e-07
-0.975 1.15 1.62621503624e-09
-1.075 1.25 8.92787165844e-17
-1.075 1.05 2.33549862663e-08
0.975 0.85 8.56706604408e-13
1.075 0.8 3.07995331622e-13
1.025 0.95 8.04855371161e-15
0.975 0.75 9.17822285082e-13
0.875 0.75 1.87854632611e-11
1.125 0.95 1.82920248622e-16
1.025 0.65 5.86519774547e-13
0.875 1.05 2.49200272771e-14
0.875 0.95 2.85584452841e-14
0.975 1.05 2.23971914088e-16
0.725 0.9 1.42323001813e-11
0.925 0.65 3.85196676864e-11
0.975 0.55 3.97421846359e-11
0.625 -1.1 3.91977622656e-14
1.025 -0.5 3.03319861883e-11
0.925 -0.5 1.86498336956e-10
1.325 1.38777878078e-17 4.01272520033e-13
1.125 -0.25 5.54471335562e-11
1.275 -0.3 3.2206666642e-13
1.475 -0.3 1.05536476994e-15
1.175 -0.15 3.94061971238e-11
0.725 1.05 5.24913007953e-14
0.575 0.9 9.5372650413e-11
0.625 1.0 4.37807867531e-13
0.725 0.8 9.75022861644e-11
0.625 1.1 1.68146582367e-13
-2.175 0.75 3.7556879839e-11
-2.325 0.8 8.49891636455e-13
-2.225 0.85 7.64258484073e-13
-2.375 0.7 9.09323260047e-13
-2.275 0.65 2.81757225051e-11
-2.225 0.95 3.76256039021e-14
-2.075 0.8 1.38768752595e-10
-2.475 0.75 1.63184113868e-15
-2.425 0.85 5.30348370072e-16
-2.325 0.9 6.52736455474e-16
1.025 0.4 1.32637040389e-10
0.925 0.4 1.13540895308e-09
1.025 -0.35 1.41490132606e-10
1.275 0.1 2.34136223446e-12
0.175 1.05 1.62963130634e-11
0.325 1.2 1.20450986804e-13
0.325 1.1 5.04207609962e-13
0.125 1.2 6.83223450256e-13
0.225 1.25 1.18026394898e-14
0.375 1.0 8.3124002406e-12
0.025 1.1 3.81145881965e-11
0.525 1.1 2.49350381589e-14
-0.025 1.2 2.13980835907e-12
0.225 1.15 3.79664322409e-12
0.225 0.95 1.97052974389e-10
-1.875 0.9 6.94227761549e-11
-1.825 0.8 8.2271142878e-09
-0.125 -1.1 1.37913133029e-11
-0.175 -1.25 1.42644635985e-12
-0.275 -1.2 8.41348820522e-12
-0.225 -1.05 6.14737008154e-10
-0.075 -1.0 9.12549318509e-10
0.075 -1.05 3.39235571372e-11
-0.025 -1.2 5.08557095702e-14
0.125 -1.15 9.82293800756e-13
-0.075 -1.3 6.40747724006e-16
-0.375 -1.15 8.68732567214e-11
-2.225 0.55 1.28760370253e-09
-2.425 0.95 2.8557219927e-16
-2.375 0.6 1.46368327521e-11
-2.075 0.6 1.74557810927e-09
-1.475 1.1 8.90220304352e-12
-1.525 0.95 4.90263924576e-09
-1.475 1.2 1.22492906394e-12
0.825 0.85 4.54521380519e-12
0.425 1.15 2.93880068225e-14
0.475 0.95 4.80493260793e-11
0.425 0.85 1.4657840019e-09
-0.175 1.15 9.05474061167e-11
-0.125 1.25 1.60845085727e-13
-0.225 1.3 3.17028347205e-13
0.025 1.0 2.42108888917e-10
-0.025 1.3 2.75893911766e-15
-0.125 1.35 1.7808498607e-13
-0.075 1.05 2.51306227215e-10
0.725 1.15 2.83746652154e-15
1.225 1.38777878078e-17 6.85294134312e-12
-2.575 -0.35 5.0525231048e-12
-2.425 -0.1 4.42911946828e-10
-2.575 -0.05 5.19459024468e-12
-2.475 -0.25 1.19495894105e-10
-2.625 -0.15 2.02901718945e-11
-2.375 -0.2 8.45004729537e-10
-2.775 -0.2 5.08928275467e-15
-2.825 -0.3 6.36160344334e-16
-2.675 -0.25 2.54464137733e-15
-2.725 -0.35 1.908481033e-15
-2.475 -1.38777878078e-17 3.89701844439e-10
-1.825 -0.95 9.73886925401e-10
-1.725 -1.15 8.80955870502e-13
-1.825 -1.15 1.34922779212e-12
-1.725 -0.95 2.32017352244e-09
-1.975 -1.15 2.58572917758e-15
-1.675 -1.05 2.00227643706e-10
-1.775 -1.05 1.39441693171e-10
-1.975 -1.0 2.13935625488e-11
-1.875 -1.05 1.0862839765e-11
-1.625 -1.15 3.52204440991e-12
0.375 -0.85 1.29949689733e-09
0.525 -0.8 1.39079343788e-09
0.475 -0.65 1.46996633862e-08
-0.175 -0.9 2.11326259548e-08
-0.225 -0.8 7.95496184568e-07
-0.275 -0.95 3.56713072469e-08
0.175 -1.0 4.9375214092e-11
0.075 -0.95 1.87221419408e-10
0.325 -0.75 2.09253807256e-08
0.575 -0.7 1.63906999421e-09
0.525 1.2 7.25024997344e-15
1.075 0.25 6.96758373549e-11
1.175 0.1 6.47058617912e-11
-1.675 1.4 8.02024664926e-16
-1.425 1.0 2.05925146911e-09
-1.325 0.95 2.45813379551e-07
-1.475 1.3 2.45594755461e-15
-1.625 0.9 1.92144454885e-09
0.875 -0.6 1.14070132036e-10
1.025 -0.15 5.66081615125e-10
0.975 0.3 1.0629393887e-09
0.775 -0.65 7.04394914312e-11
-1.375 -1.05 4.65615936371e-09
-1.425 -1.2 5.46971487124e-13
-1.525 -1.2 3.47748952815e-11
-1.275 -1.2 2.06324642306e-11
-1.275 -1.1 2.43792316661e-09
-1.175 -1.1 1.37623741602e-09
1.125 -0.05 8.87908788002e-11
-2.375 -0.7 1.02510767917e-12
-2.425 -0.8 7.69728275314e-14
-2.375 -0.6 2.01428238182e-11
-2.375 -0.5 4.89378224645e-11
-2.325 -0.4 6.72501194175e-10
-2.475 -0.65 2.84463800046e-13
-2.175 -0.35 9.55436525849e-09
-2.525 -0.75 3.73308961198e-14
-2.275 -0.65 2.29410663255e-11
-2.275 -0.75 5.23814298566e-12
-2.225 -0.5 8.63795408265e-10
-2.575 -0.55 2.10293991238e-14
-2.125 -0.6 2.26433513072e-09
-2.475 -0.45 1.4329474003e-11
-0.625 -1.15 6.4812832055e-11
-0.525 -1.2 1.10995160773e-10
-0.425 -1.25 4.30544770426e-11
-0.575 -1.35 7.66482998059e-12
-0.675 -1.3 5.44818462047e-13
-0.575 -1.05 7.97131361729e-09
-0.675 -1.05 3.4128700516e-08
-0.425 -1.05 3.833880013e-09
-0.725 -1.15 4.28369030505e-10
-1.925 -0.75 2.95305410621e-09
-1.925 -0.85 3.81917933038e-10
1.075 0.05 1.27147828477e-10
0.375 -1.0 3.55539978985e-12
0.475 -1.1 1.47980721263e-13
0.325 -1.1 1.2271197649e-12
0.275 -0.95 1.92695431337e-10
0.325 -1.2 3.85083673735e-14
-2.025 -0.65 3.68584990139e-09
-2.025 -0.75 1.01504977703e-09
0.725 0.7 5.55621632158e-10
0.625 0.8 1.35329516174e-10
-1.625 -1.25 8.39341929246e-13
-1.525 -1.0 2.71118523837e-09
-1.625 -0.95 5.37758329796e-09
-1.525 -1.1 1.01607319119e-09
-1.725 -1.3 1.41384115978e-14
-1.825 -0.85 3.01599589219e-09
-0.375 1.2 1.38279721537e-10
-0.275 1.1 1.17013650667e-09
-0.225 1.0 1.04701770231e-08
-0.325 1.35 2.1311079852e-13
-0.475 1.25 3.46146573548e-11
-0.475 1.4 3.36728685968e-12
0.875 0.5 7.03459406291e-10
0.525 0.75 1.62903516008e-09
0.175 -0.9 1.80232042653e-09
0.225 -0.8 7.34873970755e-09
0.025 -0.85 5.30766879822e-08
-0.875 -1.15 3.08805629127e-09
-1.025 -1.25 4.15847378293e-11
-0.975 -1.15 2.88505355686e-09
-0.775 -1.25 2.94967702321e-11
-0.775 -1.0 4.43121096138e-08
-0.875 -1.25 2.80692792651e-11
-0.875 -1.05 1.65426172867e-08
-0.975 -1.0 8.36630725524e-08
-1.975 0.75 1.89112750857e-09
-2.325 0.45 1.45436518654e-10
-2.375 0.35 4.12527084057e-10
-2.575 0.45 3.05215346185e-13
-2.525 0.55 4.04674160225e-13
-2.425 0.5 4.35090858994e-11
-2.525 0.35 2.39782977197e-11
0.625 -0.6 1.59848215389e-09
0.775 0.55 1.9504772372e-09
-2.625 0.05 3.2441504827e-12
-2.475 0.2 3.21848191994e-11
-2.575 0.15 2.00696212708e-11
-2.625 0.3 1.05767267599e-12
-2.675 0.2 3.04571770958e-13
-1.425 -0.95 3.26101128997e-08
-1.275 -1.0 1.33885629755e-08
-1.425 -0.85 5.51830815772e-07
-2.075 0.7 2.94975670002e-10
-0.075 -0.85 7.6913156738e-08
0.975 1.38777878078e-17 3.77734411983e-09
1.025 0.15 9.16043995183e-10
-2.175 0.45 1.2199425044e-08
-2.225 0.25 6.43536269204e-09
-2.325 0.1 8.12706458654e-09
-2.725 0.1 1.0972982733e-13
0.925 -0.15 4.82422741669e-09
0.875 -1.38777878078e-17 1.42857663704e-08
0.825 -0.1 3.90213965857e-08
0.975 -0.25 7.8570500987e-10
-2.225 -0.05 5.7870088207e-08
-2.725 -0.1 1.11763969441e-13
-0.975 1.05 3.87513823486e-07
-1.025 0.9 3.2073842041e-06
-1.125 0.95 2.25406631412e-07
-0.875 1.1 3.6384407828e-08
0.875 -0.25 1.04638759912e-08
-1.425 0.9 1.67132372416e-07
-0.125 0.95 4.09210233025e-09
0.775 -0.45 2.76836678451e-09
0.875 -0.4 1.22570645175e-09
0.725 -0.55 3.18411840817e-09
-1.525 -0.9 3.50260799149e-08
-0.025 0.9 1.3515974393e-08
0.075 0.85 8.25399802997e-08
0.225 0.85 4.39846930093e-09
0.725 -0.35 3.93799378694e-08
0.325 0.9 9.30461343087e-10
0.275 0.75 1.9833316883e-08
-0.675 -0.95 1.9469045394e-07
-2.125 -0.45 7.35830199243e-08
0.625 -0.5 5.02030725786e-08
-1.875 -0.65 9.11531178435e-08
-1.975 -0.55 4.40737751114e-08
-1.675 0.8 1.25634262819e-07
0.625 0.6 4.9373974638e-09
0.675 0.5 2.94646374541e-08
-1.675 -0.8 1.23278587233e-07
-1.775 -0.75 7.76959434211e-08
-2.075 0.5 3.33837704644e-08
-1.975 0.65 1.25127837978e-08
0.825 0.3 2.64681076011e-08
0.775 0.4 1.06717189673e-08
0.925 0.15 6.22633400796e-09
-2.125 0.15 1.84647051047e-07
-0.575 1.0 1.80450364992e-08
-0.575 1.1 2.14099281695e-09
-0.675 1.1 6.25282718203e-09
-0.575 1.2 6.240606746e-11
-0.675 1.0 4.73057522166e-08
-0.575 1.35 1.51310601499e-12
-0.425 1.1 1.82970531919e-09
-0.775 1.25 1.91810331004e-12
-0.475 1.0 2.40871887983e-08
-0.775 1.15 1.11757022181e-09
-0.675 1.2 6.44561031347e-11
-2.425 -0.35 4.15676886481e-10
-2.275 -0.3 6.30840433563e-09
0.125 0.75 1.09348878863e-07
0.325 -0.65 7.08434542979e-08
0.525 0.6 2.7142398386e-08
0.625 0.7 5.05937672972e-10
-0.425 -0.95 1.21875229743e-07
-2.125 -1.38777878078e-17 2.09393318309e-07
-2.325 -1.38777878078e-17 1.84802519326e-09
-2.275 -0.15 5.00297930421e-09
-2.175 -0.2 1.08249716948e-07
-0.375 0.95 4.20728497312e-08
-0.825 1.0 1.29125691067e-07
-0.875 0.9 2.83618250831e-06
-0.775 0.9 1.09304640997e-06
-1.525 0.85 1.03608183251e-07
-1.425 0.8 1.51138110281e-06
-0.225 0.9 3.18706916927e-08
-0.875 -0.95 4.26916312962e-07
-2.125 0.3 5.92617270278e-08
-1.675 -0.7 9.62082256709e-07
0.525 -0.55 5.82940293818e-08
0.375 0.65 6.4842218983e-08
0.775 -0.2 6.21817657469e-08
-2.025 0.25 4.78748821419e-07
-1.875 0.7 6.07755660598e-08
-1.875 0.6 7.57251277919e-08
-1.575 0.75 1.22635066166e-06
-1.775 0.7 1.4826542677e-07
0.575 0.5 2.31653415505e-08
0.625 -0.35 2.92073710118e-07
-1.175 0.85 2.6581978211e-06
0.825 0.1 3.98352853269e-08
-0.675 1.35 6.37692316551e-12
-0.525 0.9 5.78814925304e-07
-0.575 -0.95 1.88813851625e-07
-0.775 -0.9 1.29449324325e-06
-1.975 0.45 2.23206406003e-07
0.075 -0.75 1.21562912802e-07
0.175 -0.7 8.95701785401e-08
-0.025 0.75 4.47872463039e-07
-2.075 -0.15 5.41740325793e-07
-0.125 0.8 2.37625749098e-07
-0.475 -0.85 1.17979485905e-06
-0.325 -0.85 2.86206012612e-07
-1.575 -0.8 5.43901633418e-07
0.725 0.3 5.93976294037e-08
0.775 0.2 7.06333291071e-08
0.175 0.65 2.79376290273e-07
-1.775 0.6 6.08943662736e-07
-1.775 -0.65 1.96758188475e-07
-1.875 -0.55 3.2252248022e-07
-1.775 -0.55 8.9634648399e-07
-0.325 0.85 1.11900066295e-06
-1.975 -0.35 6.80793135245e-07
-2.075 -0.3 4.28755138239e-07
-0.025 -0.65 2.75226160446e-06
-0.025 -0.75 4.19338082838e-07
-1.925 -0.45 1.05688130257e-06
-1.075 -1.05 5.91249275262e-08
-0.875 -0.85 1.57070018617e-06
-0.975 -0.9 1.57681342354e-06
0.275 0.6 1.12508301567e-07
-1.075 -0.95 2.04223390739e-07
-1.225 -0.9 4.43459899438e-07
-1.125 -1.2 1.65474867161e-10
-1.175 -1.0 9.5685165949e-08
0.675 -0.25 1.26248339033e-07
0.475 0.5 3.20450233233e-07
0.425 -0.45 7.81634694118e-07
0.525 -0.4 4.02399414027e-07
0.625 0.35 1.66300633388e-07
0.425 0.4 1.4774778909e-06
0.525 0.3 1.4922694294e-06
0.675 0.2 2.80169237516e-07
0.725 -0.05 1.86237728938e-07
-0.225 0.75 3.25817112358e-06
-0.125 0.65 4.97876790864e-06
-1.325 -0.85 3.08186181462e-06
-1.475 -0.7 8.99434977122e-06
0.575 -0.2 3.07048574713e-07
-1.475 0.7 1.47228351768e-05
-1.275 0.85 1.21051972862e-06
0.375 -0.55 2.15106225976e-07
0.675 0.05 4.04660760589e-07
-0.675 0.9 8.59525788446e-07
-1.925 0.2 5.40561207654e-06
-2.025 0.1 2.77526176034e-06
-1.975 -0.2 3.11879826443e-06
-0.575 -0.85 1.48810928527e-06
-1.875 0.5 9.14422617415e-07
-1.575 0.6 1.71513955244e-05
-1.675 0.6 6.32053415925e-06
-0.725 -0.8 1.39159293024e-05
0.175 -0.6 4.58682502512e-07
-1.675 -0.6 4.66804977466e-06
-1.825 -0.45 2.8231485608e-06
-1.025 0.8 8.53145911125e-06
-0.375 -0.7 9.45903555555e-06
-2.025 -0.05 9.52831310126e-07
-1.925 -1.38777878078e-17 8.88176560468e-06
0.625 -0.1 7.38768278524e-07
0.425 -0.3 2.80949324143e-06
-0.475 0.8 6.72922405831e-06
-0.125 -0.7 1.82099866702e-06
0.375 0.55 2.82444845605e-07
-1.875 -0.3 4.89493166543e-06
-0.525 -0.75 7.65591175495e-06
-0.625 -0.7 3.20561676268e-05
-0.625 0.8 1.2669249302e-05
-1.725 0.5 5.51334669854e-06
-1.575 -0.6 1.07475200371e-05
0.275 -0.5 1.255708238e-06
-1.375 -0.65 1.80850039163e-05
-1.375 -0.75 5.59020246712e-06
-0.375 0.7 1.69342884526e-05
0.075 0.65 6.98549364464e-07
0.175 0.55 1.53171327908e-06
0.275 0.5 3.18216979075e-06
-1.375 0.7 1.53156970195e-05
-1.275 0.75 1.97964469652e-05
-1.725 -0.45 1.19678622215e-05
-1.575 -0.7 3.16833090536e-06
0.525 -0.1 2.23841629884e-06
0.075 -0.6 8.37727450722e-07
0.075 -0.5 9.73230451858e-06
-0.775 0.8 1.20337779076e-05
-1.825 -0.2 2.38013746776e-05
-1.225 -0.75 1.73925492642e-05
-1.925 0.35 2.25336091564e-06
-1.825 0.4 7.42333066925e-06
0.475 -0.2 3.52946972045e-06
0.325 -0.4 2.12771239389e-06
-1.625 0.5 1.83726038267e-05
-1.875 0.1 1.71836685496e-05
-1.125 -0.85 2.08189727478e-06
0.575 0.15 2.3804515417e-06
0.575 -1.38777878078e-17 8.96020324583e-07
-1.625 -0.45 2.88198383877e-05
-1.475 -0.6 2.89462149459e-05
-0.875 0.8 1.43572922762e-05
-1.125 0.75 1.59422154827e-05
-1.175 0.65 0.000141284499091
-1.275 0.65 3.8446225303e-05
-0.125 -0.6 5.62646602691e-06
-1.875 -0.1 2.59178046471e-05
0.225 -0.4 2.33684542738e-05
-0.275 -0.65 1.33312723293e-05
0.475 0.2 4.79750034192e-06
-1.775 0.2 4.84876069439e-05
0.375 0.3 6.79762563672e-06
0.325 0.4 7.94272335835e-06
-0.925 -0.75 3.68617878633e-05
-1.025 -0.8 8.6885083291e-06
-1.675 0.4 4.08843751692e-05
0.075 0.55 3.3283484636e-06
-0.025 0.6 3.8788686057e-06
-0.525 0.7 4.75661086968e-05
-0.825 -0.75 2.63677030753e-05
0.475 0.0 7.99831930757e-06
0.175 0.4 2.3053848263e-05
0.025 0.45 3.9573681001e-05
-0.225 0.5 0.00012372909615
-0.275 0.6 4.35852822533e-05
-1.425 0.55 0.000177211458935
-1.525 0.45 0.000157702751833
-0.675 0.7 0.000118656635049
-1.025 -0.7 7.40069556826e-05
-1.125 -0.75 2.0718093781e-05
-1.275 -0.6 0.000119033662116
-1.775 -0.35 2.23877238502e-05
-1.525 -0.5 0.000133961185599
0.375 -0.1 1.77710086516e-05
0.025 -0.4 4.39119657128e-05
-0.025 -0.55 2.24144418676e-06
0.425 0.1 6.18892837896e-06
-0.225 -0.55 3.86059312778e-05
-1.775 -1.38777878078e-17 9.88155622214e-05
-0.425 -0.6 3.00843670091e-05
-0.525 -0.65 9.9607447762e-05
-0.875 -0.65 0.000287650306788
0.325 -0.25 7.57317751106e-06
0.325 -1.38777878078e-17 2.02770197276e-05
-0.425 0.6 6.36405001505e-05
-1.725 -0.15 0.000215783664988
-1.075 0.65 5.33393364459e-05
-0.975 0.7 0.000109882195831
-1.575 0.35 0.000248820227618
-1.725 0.3 5.86852782284e-05
-0.125 -0.5 6.30995121843e-05
-1.325 0.55 0.000244668551815
-1.425 -0.5 0.000349700845531
-0.125 0.55 2.66713873393e-05
0.125 -0.3 3.58179127137e-05
-0.825 0.7 5.82701939117e-05
-0.775 0.6 0.00021010046192
-1.725 0.1 0.000204255508917
0.225 0.3 3.86125393877e-05
0.225 -0.2 4.99620993745e-05
-1.575 -0.35 0.000285705189358
-1.675 -0.35 9.69175948535e-05
-1.625 -0.15 0.000471798099093
0.275 0.2 3.08114171436e-05
-1.125 -0.65 0.000145425390618
-0.125 0.4 0.000181280517982
0.075 0.3 7.99669615714e-05
-0.525 -0.55 0.000465673926468
-0.525 0.55 0.00025698434759
-0.425 0.5 0.000425339878575
-1.425 -0.35 0.00112216243627
-1.625 0.25 0.000201606134748
-0.725 -0.65 0.000113959209963
-0.425 -0.5 0.000529160285947
-0.275 -0.45 0.00042253548296
-0.675 0.6 0.000119719271625
-0.625 0.5 0.000932128370897
0.325 0.1 3.47137062647e-05
-1.325 -0.5 0.000275568669432
-1.225 -0.5 0.000806547584952
0.125 0.2 7.38075147498e-05
-0.175 -0.4 0.000312537748585
-1.675 -0.05 0.000273750192455
-1.575 -0.05 0.000895029501024
-1.175 0.55 0.000590636296901
-1.475 0.35 0.000445160719998
0.075 -0.15 0.000217297031196
-0.025 0.25 0.000144635343087
0.175 0.1 9.07257451449e-05
-0.325 0.45 0.000440793095875
-0.975 0.6 0.000403861117044
-1.525 -0.25 0.000704016076615
0.225 -0.05 8.49605774226e-05
0.125 1.38777878078e-17 0.00017853714814
-0.775 -0.55 0.000674280783278
-0.675 -0.55 0.000773559920943
-1.025 0.5 0.0013205985745
-0.775 0.5 0.00182078609781
-0.875 0.6 0.000156371610732
-0.875 0.5 0.00183194455596
-1.575 0.15 0.000565735939383
-1.275 -0.4 0.00175229336122
-1.125 -0.5 0.00112086309663
-0.375 0.35 0.00180441620134
-0.375 -0.4 0.00136549162211
-0.075 -0.35 0.000147895290593
0.025 -0.25 0.000176607674415
-1.025 -0.6 0.000496004878848
-1.375 0.4 0.00112814476143
-0.125 -0.25 0.000670314133572
-0.225 0.35 0.000794684278634
-0.125 0.25 0.000639803288241
-0.525 0.4 0.00229532111055
-1.625 0.05 0.000697197132389
0.025 0.15 0.000285739955205
-1.425 -0.2 0.00378422565216
-0.875 -0.55 0.000476753815124
-0.975 -0.5 0.00224239768663
-0.025 -0.1 0.000512641664789
0.025 0.05 0.000255202316861
-0.075 1.38777878078e-17 0.000867095194706
-0.675 0.4 0.00345635950221
-1.125 0.45 0.00355385963606
-0.975 0.4 0.00614006410499
-1.525 0.25 0.000548258545414
-1.475 0.15 0.00226883307695
-1.425 0.25 0.00138526256273
-0.275 -0.25 0.00203635081641
-0.625 -0.45 0.00130471894736
-1.525 0.05 0.00144281189102
-1.275 0.4 0.0025768473944
-0.725 -0.45 0.00132771567287
-0.825 -0.45 0.00252884936239
-1.175 -0.4 0.00492568518737
-0.125 0.1 0.001433872707
-0.575 -0.35 0.00380206103817
-0.675 -0.35 0.00684100829882
-1.325 0.3 0.00341333781965
-0.225 0.2 0.00137733983592
-1.425 -1.38777878078e-17 0.00439456797659
-1.075 -0.4 0.00325130175465
-1.475 -0.1 0.00368365066276
-0.175 -0.1 0.00191469202325
-0.275 1.38777878078e-17 0.00353690989854
-0.625 0.3 0.00949564720563
-0.925 -0.4 0.00711286182953
-1.175 0.3 0.00919412871765
-1.325 -0.3 0.00292794734315
-1.225 -0.3 0.00596136817387
-0.475 0.3 0.00387212896089
-0.775 -0.35 0.006387330353
-1.375 0.15 0.00589390267998
-0.825 0.4 0.00426683577685
-0.775 0.3 0.00938600184237
-1.025 0.3 0.0160637514569
-0.325 0.15 0.00310438171762
-1.275 -0.2 0.0103379791688
-0.475 -0.35 0.00559308549112
-0.875 0.3 0.0103513100097
-1.375 -0.1 0.00650388182712
-0.425 0.2 0.00439575183313
-0.575 0.15 0.0139543580954
-0.775 -0.2 0.0235241399945
-0.375 0.05 0.00537429504834
-0.325 -0.1 0.00305475683565
-0.675 -0.2 0.0198273406437
-1.275 0.15 0.0136769009723
-0.475 0.1 0.0108916697064
-0.375 -0.2 0.00566748145879
-1.175 0.15 0.0156501698091
-1.125 -0.2 0.018519043308
-0.575 -0.2 0.00959000356923
-0.475 -0.15 0.00840583365097
-1.025 -0.3 0.0125779200715
-1.325 0.05 0.00818486910352
-1.275 -0.05 0.0163496391536
-0.875 -0.3 0.0192024577302
-0.725 0.2 0.0178165686015
-0.625 -0.1 0.0269267039207
-1.175 1.38777878078e-17 0.026250699389
-0.425 -0.05 0.0090477012503
-1.175 -0.1 0.0204119584235
-0.825 0.2 0.0253437234138
-0.725 0.05 0.0428656670333
-0.625 0.05 0.0175737309364
-0.925 0.2 0.0225489204292
-1.075 0.2 0.0188658875301
-0.975 -0.2 0.030848360763
-0.525 0.0 0.0187099450516
-1.075 -0.1 0.0223152975236
-0.875 -0.1 0.0468141849818
-0.725 -0.1 0.0302966300255
-1.025 0.1 0.0430494242946
-0.875 0.05 0.0621909416758
-0.975 -0.05 0.0477713149167
-1.075 1.38777878078e-17 0.0326057509448
