0.575 -1.05 4.90524014736e-15
0.775 -0.75 9.52900757479e-12
0.825 -0.9 3.14885580167e-14
1.125 -0.8 9.4916406e-18
1.125 -0.95 1.5894144e-19
1.225 -0.9 2.6742528e-19
1.025 -0.8 7.547406606e-16
0.625 -0.85 8.90961464652e-12
0.725 -0.85 2.09531867342e-12
0.675 -0.75 2.77390882381e-11
1.025 -0.9 1.5299977682e-16
0.875 -0.8 1.15512894188e-13
0.525 -0.95 1.30207858264e-12
0.725 -1.05 3.7977516216e-16
0.675 -0.95 2.09033924205e-13
0.475 -1.1 4.32195240531e-13
1.075 0.7 9.61327191629e-15
1.175 0.7 4.86858533694e-15
0.975 0.65 2.77571865356e-12
1.125 0.55 2.06729873692e-14
0.975 0.75 1.39377609184e-14
1.275 0.6 5.889408e-19
1.025 0.55 2.70223195054e-12
1.125 -0.55 9.74124983188e-15
1.175 -0.65 4.419622212e-17
1.225 -0.5 1.18595780801e-14
1.075 -0.65 5.39075471316e-15
0.975 -0.65 3.57099336858e-13
1.025 -0.55 8.6574011292e-14
1.275 -0.6 3.51271997438e-15
1.075 -0.45 2.1965487758e-13
1.275 -0.7 1.164509176e-17
1.225 -0.8 3.3342336e-19
0.875 -0.65 8.60734110788e-12
1.125 -0.25 6.58287459625e-12
0.925 -0.3 3.35623462963e-10
1.225 -0.35 9.98458771828e-14
1.325 -0.3 6.94265036346e-15
1.325 -0.5 3.401573736e-17
1.425 -0.5 2.506620016e-17
0.825 -1.05 3.5961728472e-16
0.925 -0.95 1.693831272e-16
0.925 -0.5 9.88215536605e-12
1.425 -0.1 6.07065192056e-15
1.475 0.1 1.15058086851e-14
1.275 -0.05 4.2311120883e-13
1.575 -0.05 7.6963954512e-16
1.375 1.38777878078e-17 6.13387298357e-14
1.575 0.15 1.84791663808e-15
1.325 0.2 9.38110684801e-14
1.425 0.2 1.78094607127e-14
1.375 0.35 9.92656345562e-15
1.525 0.35 4.796895404e-16
1.225 0.3 3.76507732828e-13
1.275 0.4 7.72781186932e-14
1.125 0.25 6.59894815747e-12
1.425 0.45 1.0993539008e-16
1.275 0.1 2.2989114905e-13
1.675 0.25 5.496769504e-17
1.375 -0.2 8.13398920708e-15
1.175 1.38777878078e-17 7.46636313241e-12
1.225 -0.15 5.66966444036e-13
0.775 -0.6 7.9194105984e-11
-1.725 1.05 2.89510454801e-11
-1.775 0.95 6.76176893562e-10
-1.575 1.05 6.01570646455e-11
-1.625 1.2 3.06404680228e-14
-1.725 1.15 8.46561992921e-14
-1.675 0.95 4.06692893198e-10
-1.575 0.95 1.1698933095e-09
-1.825 1.1 1.43966109616e-14
-1.925 1.15 4.1238317736e-16
-1.725 1.25 2.57138864601e-14
-1.975 1.05 3.7753031234e-16
0.875 0.8 8.97462470411e-13
0.825 0.7 3.06146446185e-11
0.875 0.55 1.08702317084e-10
1.075 0.8 3.60876479752e-15
0.225 -0.9 8.34277952458e-10
0.325 -1.1 4.99841786161e-13
0.375 -0.9 8.47167983556e-11
0.125 -1.0 9.38676935894e-11
0.275 -1.0 1.00332553771e-11
0.275 -0.8 9.22741715398e-09
0.425 -1.0 7.63313488572e-13
-1.275 1.1 9.89231160218e-11
-1.175 1.1 5.43760167955e-10
-1.375 1.2 8.18649184869e-14
-1.425 1.1 7.5109267407e-12
-1.325 1.0 1.43759371894e-08
-1.125 1.2 1.48797860974e-15
-1.225 1.2 1.0628418641e-15
-1.225 1.0 3.2587288778e-08
-1.075 1.1 3.29008945247e-09
-1.025 1.2 6.10039591014e-12
0.925 0.45 3.73654880283e-11
1.225 0.5 9.19281752234e-15
1.075 0.45 1.17457614706e-12
1.025 0.35 7.88397191419e-11
0.775 0.55 6.26934972132e-10
-1.775 0.8 1.40303617019e-08
-1.675 0.85 7.94186160052e-09
-1.975 0.95 3.1165182302e-12
-1.875 0.95 1.60637153103e-12
-1.875 0.85 4.14025979786e-10
0.375 1.0 1.24868350624e-11
0.275 1.05 1.12232149351e-11
0.275 0.95 6.99054426735e-11
0.475 1.1 4.94747039225e-14
0.225 1.15 3.4048545214e-13
0.225 0.85 1.55311689997e-09
0.125 1.05 1.07819223393e-11
0.125 0.95 8.25997590712e-11
0.375 1.15 6.59113633949e-14
1.025 -0.1 1.84856340993e-10
1.475 -0.2 3.2960868872e-16
1.175 0.4 1.94523553338e-13
1.075 0.15 3.9932195836e-11
0.675 -0.65 4.27778478809e-10
0.575 -0.7 3.04215576307e-10
0.675 -0.55 5.12193196696e-10
-1.475 1.0 1.65464389277e-10
-1.425 0.9 4.25644334102e-08
-1.525 1.2 8.02024664926e-14
-1.325 0.9 1.48630030654e-07
1.175 0.15 5.1672582225e-12
0.075 -0.9 1.88287270131e-09
-0.025 -1.0 1.41507529233e-10
0.175 -1.1 1.32452618788e-12
-0.025 1.1 6.43163762183e-11
0.175 1.25 1.2953601276e-14
0.075 1.15 1.83238046945e-11
-0.025 1.25 5.51787823531e-14
-0.125 1.2 7.54544774494e-12
0.475 -0.85 9.49269603947e-11
0.825 0.9 4.1398618357e-14
0.675 1.05 7.4657304696e-15
0.725 0.85 1.19600952083e-11
0.725 0.95 6.62704592002e-13
0.575 0.85 1.07929052687e-10
0.775 1.05 5.67493304308e-14
0.675 0.75 1.94825015818e-10
0.625 0.95 1.32048611678e-12
-0.225 -1.15 4.35668409358e-12
-0.125 -1.0 5.73019620755e-10
-0.075 -1.2 1.60186931002e-14
-0.325 -1.2 2.81386724368e-11
-0.125 -1.1 4.66615750594e-12
-0.225 -1.25 2.31505772323e-12
-0.325 -1.1 2.9460058342e-10
-0.225 -1.05 1.24864374792e-10
-2.075 -0.75 2.79662489484e-11
-1.925 -0.8 6.05150909307e-10
-2.125 -0.85 5.05980975278e-13
-2.025 -0.9 2.25498048872e-12
-1.825 -0.9 2.14259867744e-10
-1.925 -0.9 3.22250306701e-11
-2.225 -0.75 4.24121686444e-12
-2.175 -0.95 8.571050397e-16
-2.075 -1.0 3.77021048943e-13
1.125 -0.1 5.50061067885e-12
1.075 1.38777878078e-17 4.60744997912e-11
0.975 0.05 1.33626621882e-09
-2.175 0.75 2.41367842135e-11
-2.325 0.7 2.8557219927e-14
-2.175 0.65 3.63793863009e-11
-2.275 0.85 8.15920569342e-15
-2.275 0.6 1.19831889894e-11
-2.025 0.75 3.6512366319e-10
0.825 0.4 2.67254884567e-09
0.875 0.3 1.3989958573e-09
0.975 -0.4 1.0803300942e-11
0.825 -0.45 7.21680975224e-10
1.025 -0.3 1.12911277074e-11
0.725 -0.45 2.22115690042e-09
0.925 0.95 3.7328652348e-15
-0.325 -1.0 1.11011767891e-08
-0.075 -0.9 1.85555037612e-08
-0.225 -0.95 4.22022472854e-08
0.075 -1.1 6.48066300196e-14
0.675 0.65 2.27273161631e-09
-1.575 0.85 3.82942233406e-09
-2.425 -0.25 1.27779796463e-10
-2.475 -0.1 5.58819847205e-12
-2.275 -0.2 1.0466779112e-09
-2.575 -0.2 6.36160344334e-14
-2.325 -0.05 2.9744470336e-09
-2.375 -0.15 6.20427872345e-10
-2.425 -1.38777878078e-17 1.27471094488e-10
-0.175 1.1 1.79507557501e-10
-0.325 1.3 8.88031215109e-13
-0.275 1.15 2.10551858549e-10
-0.075 1.0 1.10255855388e-09
0.925 -0.1 3.22043534682e-09
0.025 0.95 9.29989440167e-10
-0.075 0.9 3.37346131661e-09
0.975 0.2 6.18194176847e-10
0.875 0.1 4.11189549387e-09
0.375 0.9 3.30581278883e-10
0.375 0.8 1.97220855361e-09
0.475 0.95 4.83542799604e-11
0.725 0.3 1.92360586462e-08
0.975 -0.2 8.81493655279e-10
0.025 0.85 4.37461427712e-08
0.025 0.75 2.26196680677e-07
0.775 -0.35 2.53561328195e-09
0.825 -0.25 3.65687833779e-09
-2.275 -0.55 2.66204638155e-11
-2.125 -0.5 1.89141141191e-09
-2.375 -0.6 3.09778493164e-13
-2.125 -0.65 2.15509203874e-10
-2.025 -0.55 1.79120798753e-08
-2.275 -0.65 1.79392354901e-12
-2.225 -0.45 1.8706189475e-09
-2.375 -0.7 2.77023723281e-13
-1.925 -0.55 2.57329794658e-08
0.425 -0.75 3.96717104903e-09
0.725 0.45 3.1894758726e-09
-1.975 -0.7 1.71253358752e-09
-1.875 -0.7 1.00763179574e-08
-1.825 -0.8 1.64436064775e-09
-1.875 -1.0 4.92683992515e-12
0.575 0.75 4.77515176936e-10
0.575 0.65 2.26641208121e-09
0.475 0.75 3.78308121124e-09
-1.525 -1.1 9.93450988052e-12
-1.725 -1.05 6.48234820309e-11
-1.675 -1.2 7.06920579888e-13
-1.575 -0.95 9.88997126391e-09
-1.625 -1.05 7.64616416247e-11
-1.675 -0.95 1.3409291564e-09
-1.475 -1.0 3.55753839895e-09
-1.625 -0.85 3.08700121977e-08
-1.725 -0.8 8.07959004535e-09
-0.875 -1.1 1.89443252903e-09
-0.675 -1.05 8.33692673478e-09
-0.775 -1.1 7.23034700747e-10
-0.675 -1.2 2.64532972079e-11
-0.875 -1.2 1.33038122803e-12
-0.825 -1.0 4.39036612087e-08
-0.775 -1.2 1.84327322855e-10
-0.725 -0.95 2.85949632703e-07
-1.975 -1.05 7.69461629909e-13
-1.825 -1.1 6.46432294396e-14
0.475 -0.65 6.81423245085e-09
-0.425 1.1 3.94581092052e-09
-0.425 1.25 1.41369846971e-10
-0.575 1.15 6.37692316551e-10
-0.575 1.25 5.04368671662e-11
-0.475 1.0 1.84617366016e-08
-2.475 0.5 1.74288978177e-12
-2.375 0.55 7.09854280768e-12
-2.225 0.4 8.10049662382e-10
-2.275 0.3 3.38930624928e-10
-2.325 0.45 2.01059156956e-10
-2.175 0.25 5.06784513344e-09
-2.425 0.4 5.48604000741e-12
-2.325 0.2 2.01722555898e-10
-2.175 0.5 1.41062446891e-09
-2.125 0.35 1.26883632461e-08
-0.575 -1.05 5.34264042775e-09
-0.975 -1.1 2.07724131962e-09
-0.525 -0.95 2.67916721652e-08
-0.525 -1.15 7.07055149608e-10
-0.525 -1.3 3.1505035777e-13
0.575 -0.55 2.41380461407e-09
-1.325 -1.05 3.43381356665e-09
-1.375 -0.95 3.24841474675e-08
-1.425 -1.1 3.52083637408e-12
-0.225 1.25 8.87196559813e-13
-0.275 1.05 1.85647866463e-09
-0.325 0.95 3.31106240556e-08
-1.425 -0.85 1.75291283884e-07
-1.525 -0.85 7.88038937613e-08
-1.325 -1.2 2.22047931959e-13
-2.075 -0.3 7.40478528135e-08
-2.375 -0.45 6.27530455835e-11
-2.325 -0.35 7.47141985992e-10
-2.225 -0.3 4.948704606e-09
-1.975 -0.2 1.45664052569e-06
0.825 -0.05 1.06972592299e-08
0.775 0.15 1.93655410486e-08
-2.525 0.1 5.48649136648e-12
-2.575 0.25 2.80316817478e-12
-2.425 0.25 4.99440454284e-11
-2.275 0.1 1.69077117684e-09
0.125 0.8 3.36686973202e-08
0.225 0.7 3.55044010893e-08
-1.925 0.75 1.60378158239e-09
-1.775 0.65 9.43399910038e-08
-1.775 -0.7 4.37945780116e-08
-0.425 -0.9 1.9449721164e-07
-0.425 -1.05 1.13935538834e-09
-2.025 0.6 7.08914397793e-09
-1.875 0.65 3.07599638966e-08
-2.025 0.85 3.66057031904e-12
-1.125 0.85 1.51358362639e-06
-1.225 0.9 1.34651409909e-07
-1.125 0.95 1.43661003401e-07
0.225 -0.65 1.36662281681e-07
0.325 -0.7 3.22791448896e-08
0.125 -0.75 6.33548000249e-08
-1.925 0.5 1.96714248889e-07
-2.025 0.45 9.03981701833e-08
0.675 0.55 4.45110899863e-09
0.575 0.55 3.08867222686e-09
-2.025 0.2 1.89855460537e-07
-2.125 0.15 9.84148171323e-08
0.625 0.4 1.15280790363e-07
-1.425 0.8 3.33708058222e-07
-1.675 0.7 1.98041247176e-07
0.625 -0.45 1.17132265491e-08
0.725 0.05 1.07283640551e-07
0.675 0.2 1.81231379338e-07
-0.225 -0.85 1.76217366644e-07
-2.175 -0.05 1.26403169482e-08
-1.675 -0.7 1.29549582046e-07
0.725 -0.1 6.20020380542e-08
0.725 -0.2 7.50623894632e-08
-1.975 -0.4 1.2226648712e-07
0.475 0.65 2.28329564715e-08
0.475 0.55 4.75397696957e-08
0.375 -0.6 4.04674970512e-08
0.525 -0.45 1.0059103894e-07
0.425 -0.5 1.61036409104e-07
-0.225 0.9 5.65383434064e-08
-0.025 -0.8 1.53222723531e-07
0.675 -0.35 1.50526206922e-08
-1.675 0.6 3.5569134184e-07
0.325 0.65 5.67937437965e-08
-1.825 -0.6 1.61979351198e-07
-1.575 -0.75 8.70986005987e-07
0.125 0.65 3.32024326989e-07
-2.175 -0.15 5.15346622244e-09
-2.075 -0.1 1.57967402929e-07
-0.725 1.05 6.89812029169e-08
-0.825 0.95 1.04399387339e-06
-0.675 0.95 4.38494393491e-07
-0.875 1.05 1.33788730695e-07
-0.725 1.15 4.97841534936e-09
-0.975 1.05 1.08038936113e-08
-0.975 0.95 5.66241151153e-07
-0.575 1.0 3.03335040812e-08
-0.825 1.15 1.41373463838e-10
-2.175 0.05 3.04181680116e-08
-2.025 1.38777878078e-17 1.06682627715e-06
0.225 0.6 3.18215505238e-07
-0.525 0.9 2.44391433914e-07
-0.625 -0.95 1.54662657823e-07
-0.525 -0.8 5.47428797323e-06
0.525 0.4 1.91905779506e-07
0.275 -0.55 3.71525572196e-07
-1.525 0.75 1.58836456284e-06
-1.825 0.55 3.61399002105e-07
-1.875 -0.45 4.77148805489e-07
-0.375 0.85 3.3380060654e-07
-0.225 0.75 1.40466351712e-06
0.625 0.05 3.0529314537e-07
0.575 -0.35 9.34109189433e-08
-1.575 -0.65 4.63787013283e-06
-1.475 -0.75 1.85645045148e-06
0.575 0.25 6.90040829924e-07
-1.975 0.3 5.30036432041e-07
-1.875 0.35 1.95296432812e-06
0.625 -0.25 1.12100653867e-07
0.625 -0.05 2.88942017116e-07
0.375 0.5 8.0980284307e-07
-1.925 0.15 2.77616585849e-06
-0.625 -0.85 1.23580408671e-06
-0.925 -1.0 1.92952356028e-07
-0.825 -0.9 1.17007783005e-06
-0.775 -0.8 8.19756991453e-06
-1.575 0.6 1.8337924429e-06
-1.375 -0.75 2.52891224139e-06
-1.325 -0.85 4.59579507957e-07
-1.925 0.0 2.91617392599e-06
0.125 -0.6 5.73900683493e-07
-0.975 -0.85 4.73109150529e-06
-1.075 -0.95 4.42334896773e-07
-1.075 -1.1 2.04201939918e-09
-1.175 -0.95 1.01374733442e-07
-0.875 -0.75 7.24640630473e-05
0.175 -0.5 3.65672646111e-06
-0.375 -0.8 1.07964820248e-06
-0.175 -0.75 8.2247543439e-07
0.325 -0.45 2.53391725993e-06
-1.325 0.75 1.07590835517e-05
0.025 -0.7 6.0895080981e-07
-1.725 -0.6 5.10308903752e-07
-0.925 0.85 2.19787186091e-06
-0.775 0.85 2.7124714795e-06
-0.975 0.75 3.10857303786e-05
-0.875 0.75 3.34366627347e-05
-1.025 0.85 1.4671528535e-06
0.525 0.0 1.39811769371e-06
0.575 -0.15 2.54912166391e-07
-0.325 -0.7 8.21714991292e-06
0.475 0.3 1.00997438663e-06
0.325 0.4 3.27086560878e-06
-0.675 0.85 3.84750034794e-06
0.525 -0.25 5.56037111262e-07
0.425 -0.35 1.34478988521e-06
-1.225 -0.8 5.1395986262e-06
-1.125 -0.8 5.99980453066e-06
-1.775 0.1 6.07394085346e-05
-0.075 -0.65 1.77158729909e-06
0.025 0.6 5.83426998743e-06
-0.125 0.7 2.48140010197e-06
-0.125 0.8 3.33612917278e-07
-1.725 -0.5 3.99619309793e-06
-1.775 -0.4 5.82542578738e-06
-1.925 -0.3 2.58492989507e-06
-1.675 0.5 1.70192248754e-05
-1.075 0.75 2.08251884852e-05
-1.825 -0.3 5.70001385463e-06
-1.275 -0.95 8.06661145251e-08
0.375 0.3 5.05745235119e-06
-0.375 0.75 6.35754890711e-06
-0.475 0.8 6.03501477532e-06
-1.875 -0.2 4.04588565368e-06
-1.925 -0.1 3.19874605153e-06
-1.625 -0.45 2.67422983004e-05
-1.575 -0.55 7.29343609381e-06
0.175 0.5 3.14628473427e-06
-1.475 0.65 2.19208544107e-05
-1.325 0.65 2.96665482451e-05
-0.225 0.6 2.6293517048e-05
-1.775 0.45 1.65653053209e-06
0.075 0.5 5.20284786856e-06
-0.575 0.75 1.12137119973e-05
-0.675 -0.75 3.09530539305e-05
-0.475 -0.65 6.55618260445e-05
-0.575 -0.65 0.000137564191915
-1.825 0.25 7.9380804322e-06
0.475 -0.15 1.92795958802e-06
0.475 0.1 3.33714794473e-06
-1.025 -0.75 4.05189096663e-05
-1.475 -0.65 1.28190866437e-05
-1.175 0.75 1.68243630212e-05
-1.825 -0.1 1.63325339474e-05
-0.125 0.55 2.07431284294e-05
-1.375 -0.65 1.7891367747e-05
-1.275 -0.7 1.40074040691e-05
0.225 -0.3 1.72514644886e-05
0.225 0.35 1.45065924319e-05
0.075 -0.4 3.99348015539e-05
0.025 -0.55 1.4552977317e-05
-0.175 -0.6 1.73968444038e-05
-0.325 0.65 3.91950180381e-05
-0.475 0.65 5.95181912077e-05
-1.725 0.2 4.51394907584e-05
-1.725 0.35 3.3857092504e-05
-1.575 0.35 0.000122106591376
-1.475 0.55 6.49054676209e-05
-1.575 0.5 4.48235780126e-05
-1.175 0.65 0.000169666814164
-0.625 0.65 0.000108951493614
-0.725 0.75 4.03260934453e-05
0.425 -0.05 7.67790694035e-06
-1.725 -0.15 6.76453155054e-05
-1.675 -0.35 5.98856208194e-05
-1.575 -0.35 7.18890360088e-05
-0.125 -0.45 0.000129512908424
0.125 0.4 1.97503402926e-05
-0.025 0.45 5.74150400011e-05
-1.175 -0.65 0.000126274845087
0.375 0.15 1.14945809598e-05
0.275 0.25 2.04298235743e-05
0.375 -0.2 6.7138011549e-06
-1.675 0.1 0.000143390547835
-1.475 -0.55 7.08920580558e-05
0.275 0.1 4.31969840544e-05
-1.675 -0.05 0.000247927591563
-1.625 -0.2 0.000290318944683
-1.825 1.38777878078e-17 2.552842397e-05
-0.175 0.45 0.000242208785242
0.325 1.38777878078e-17 4.06111752382e-05
-1.075 -0.6 0.000173452293651
-1.475 0.4 0.000233239257696
-0.275 -0.5 0.000223808068992
-1.075 0.65 0.000121429647696
-1.275 -0.6 4.7637935401e-05
-1.375 -0.55 3.60340851938e-05
-0.325 0.55 0.000123765170461
-0.425 0.5 0.00042338039414
-0.325 -0.6 3.95834885215e-05
0.125 0.25 6.76160396067e-05
0.025 0.3 9.16206528845e-05
-1.625 0.25 0.000127261300862
0.275 -0.15 2.83798289357e-05
0.125 -0.25 5.40549059989e-05
-1.575 0.15 0.00042469393392
-0.575 0.55 0.000335429846621
-0.725 0.65 0.000138929679355
-0.925 0.65 0.000183962492022
-0.675 -0.65 0.000172235616839
-0.775 -0.65 0.000162483702064
-1.525 0.25 0.000886251819137
-0.825 0.6 0.000426104763094
-0.475 -0.5 0.000664089580191
-1.425 -0.4 0.000406303929493
-1.375 0.55 0.000150698730887
-1.325 0.45 0.000422247636596
-1.275 0.55 0.000388165630262
-1.175 0.55 0.000367942209309
-1.525 -0.45 8.94173243137e-05
-1.575 -1.38777878078e-17 0.000741199662866
-0.975 -0.6 0.000345994434287
-0.575 -0.55 0.000220370776999
-0.025 -0.35 0.000149239716114
-0.075 0.3 0.00026245832147
-0.875 -0.55 0.000958904002866
-0.275 0.4 0.000668494231509
0.125 0.1 0.000104787479779
-0.675 -0.55 0.000424008698773
-0.775 -0.5 0.0011202664375
-1.175 -0.55 0.000259752367993
-1.325 -0.4 0.000632106952614
-1.275 -0.5 0.000501870680793
-0.975 0.5 0.00233763662747
-1.075 0.55 0.000477049845235
-1.375 0.35 0.00137946919072
0.175 -0.1 8.82845356634e-05
0.025 -0.15 0.000306618131686
-1.375 -0.3 0.00237273246737
-1.475 -0.3 0.000633766133778
-1.525 -0.2 0.0009310855718
-1.475 -1.38777878078e-17 0.00266353223705
-0.775 0.5 0.00182199360797
-0.875 0.5 0.000850725969663
-0.225 -0.4 0.00067627792394
-0.125 -0.25 0.000492100997545
-0.025 -0.05 0.000312930922564
0.075 0.0 0.000215873896873
-0.175 0.25 0.000810637864219
-0.075 0.15 0.000590338404463
-1.225 0.4 0.00181316563074
-0.675 0.4 0.0032275926612
-0.675 0.55 0.000471214235153
-0.525 0.45 0.00111931980864
-0.925 -0.45 0.00482766385818
-1.075 -0.5 0.00196461654696
0.025 0.15 0.00019191624508
-0.425 -0.4 0.0017963018408
-0.725 -0.4 0.0028100967818
-1.225 -0.4 0.00182115169434
-0.375 -0.3 0.00191717849124
-0.225 -0.15 0.00158623122092
-0.025 0.05 0.000332979325317
-1.075 0.4 0.00538394627039
-1.425 -0.15 0.00396727388622
-0.275 -0.25 0.00245487380401
-0.125 -0.1 0.00117983891187
-1.425 0.25 0.00214378703681
-1.375 0.1 0.00559023720173
-1.475 0.1 0.00116146871417
-0.225 0.05 0.00257139800563
-0.325 0.3 0.00139802559725
-0.925 0.4 0.00599042135239
-0.125 1.38777878078e-17 0.00116364764566
-0.425 0.35 0.00308886928554
-1.275 0.25 0.00644379299798
-1.525 -0.1 0.00101123144577
-0.625 -0.45 0.00133897610913
-0.575 -0.35 0.00347285147917
-1.175 0.3 0.00622004247793
-0.825 -0.4 0.00518242880743
-1.275 -0.3 0.00314801181287
-1.325 -0.15 0.00656892317523
-1.375 -1.38777878078e-17 0.00665683674442
-1.175 -0.3 0.00644815401327
-1.125 -0.4 0.00417128441149
-1.025 -0.35 0.00680320012248
-0.725 0.3 0.00771337517484
-0.375 -0.15 0.00584496151366
-0.275 -0.05 0.00414195665496
-0.475 -0.25 0.00461126436634
-0.275 0.2 0.00188704696353
-0.375 0.15 0.00446240742258
-0.375 0.05 0.00891401775271
-0.825 0.35 0.00937852752
-1.275 0.1 0.00361674372754
-0.625 0.25 0.00536227923539
-0.525 0.2 0.0100516261905
-0.575 0.35 0.00675142776507
-0.675 -0.3 0.018465159722
-0.475 -0.1 0.0130550207103
-0.575 -0.2 0.0110196871291
-1.025 -0.2 0.0240382652673
-1.225 -0.2 0.00953086923207
-1.275 0.0 0.0130442916075
-0.925 -0.3 0.0199327326303
-0.775 -0.3 0.0107863713742
-1.075 0.25 0.0178730813749
-1.175 0.15 0.0136529759283
-0.975 0.25 0.0131162341497
-0.725 -0.1 0.0329363152144
-0.625 0.05 0.0231098344795
-0.475 0.1 0.00936094684505
-0.525 1.38777878078e-17 0.0176610419914
-0.875 0.25 0.0127717350651
-1.075 -0.05 0.0258308991717
-1.175 -0.1 0.0194598460945
-1.125 -0.2 0.0130213057562
-0.825 -0.2 0.0245533209254
-0.625 -0.05 0.0302330348025
-1.175 0.05 0.0245416986187
-0.925 -0.15 0.0476152693694
-0.775 0.2 0.0212561950113
-0.675 0.15 0.0189900794124
-1.025 0.15 0.031931848224
-0.825 0.1 0.0382934929937
-0.925 0.15 0.0331139336295
-0.825 -0.05 0.0437558889463
-0.725 1.38777878078e-17 0.0394234626098
-0.925 1.38777878078e-17 0.0713584025472
-1.075 0.05 0.0322877275955
