0.625 -0.65 5.70168e-14
0.725 -0.5 9.96858e-14
0.875 -0.55 1.26144e-15
0.775 -0.6 1.308528e-14
0.625 -0.55 2.832075476e-11
0.725 -0.7 2.52288e-15
0.525 -0.7 3.31619664e-12
0.525 -0.55 1.5800832756e-10
0.625 -0.75 1.68192e-15
0.575 -0.45 6.202730111e-11
0.675 -0.4 1.396936546e-11
0.875 0.3 3.14585184e-12
0.725 0.45 4.794397451e-11
0.575 0.4 3.8272829121e-10
0.625 0.55 1.3779452415e-10
0.675 0.3 7.0249364017e-10
0.775 0.35 9.36118926e-12
0.775 0.55 1.5024e-15
0.725 0.2 1.75959561005e-09
0.825 0.45 1.43055522e-12
1.075 1.38777878078e-17 4.05648e-14
0.925 -0.15 2.13963528e-12
0.925 1.38777878078e-17 9.5215157e-12
1.025 -0.1 9.7578292e-13
0.975 0.1 4.07533008e-12
0.825 0.05 7.279779312e-11
0.975 -0.25 5.0251328e-13
0.875 0.15 4.558084178e-11
0.825 -0.1 5.583519814e-11
0.425 -0.5 7.64232212861e-09
0.425 -0.65 8.9183792889e-10
0.325 -0.6 4.90398129433e-09
0.375 -0.35 9.88548547236e-08
0.475 -0.4 3.07436204487e-08
0.625 -0.25 1.89833587499e-09
0.525 -0.3 1.04364903705e-08
0.725 -0.3 2.039768517e-11
0.825 -0.45 6.199416e-14
0.825 -0.3 6.61882693e-12
0.675 -0.15 1.6894013843e-09
0.575 -0.15 3.4407718328e-09
0.675 -1.38777878078e-17 1.75681294501e-09
0.925 -0.4 2.48402e-13
0.425 -0.25 1.66347681421e-07
0.625 0.1 1.59127956835e-08
0.575 0.25 3.13037765435e-09
0.975 0.25 2.7449258e-12
0.775 -0.2 2.55450793e-11
0.475 0.55 6.59272624187e-09
0.475 0.4 2.60477935048e-08
-0.075 0.85 5.82787465452e-09
0.025 0.75 1.85981327699e-08
0.075 0.95 6.02696215e-12
0.275 0.9 6.20472066e-12
0.175 0.75 5.03809069224e-09
0.125 0.85 1.3650767077e-10
-0.125 0.95 8.398223479e-10
0.225 1.0 5.3153694603e-10
-1.875 0.65 1.35986761557e-09
-1.775 0.65 7.0708717878e-10
-1.775 0.55 9.35172703533e-09
-1.675 0.6 4.86526361342e-08
-1.875 0.55 7.6889505133e-10
-1.675 0.5 2.58177825506e-07
-1.725 0.75 3.2047238316e-10
-1.825 0.45 2.8835992064e-08
-1.625 0.7 1.18930239832e-08
-1.575 0.6 7.66837336107e-07
-0.225 0.85 1.38459498484e-07
-0.375 0.8 6.42493383157e-07
-0.375 0.7 2.69582554573e-06
-0.225 0.75 3.04291980605e-07
-0.375 0.95 9.83797405354e-08
-0.475 0.85 9.61747884973e-07
-1.425 0.95 5.2534316085e-10
-1.425 0.85 1.07727092038e-08
-1.275 0.9 2.50628026224e-08
-1.525 0.95 6.24822996e-12
-1.475 0.75 1.268585816e-07
-1.325 1.0 7.045941126e-11
-1.325 0.8 7.006239976e-08
-1.575 0.85 2.8590236394e-10
0.025 0.65 7.57471545894e-08
-0.075 0.75 2.81852762371e-08
-1.625 1.0 1.3295673962e-10
-1.125 0.85 2.81945350236e-07
-1.175 0.75 1.77658556293e-06
-1.425 1.1 1.78520856e-12
-1.175 0.95 1.9650149578e-10
0.075 -0.55 1.1547869916e-06
0.075 -0.65 2.77964469556e-08
0.225 -0.65 1.35985388837e-08
0.225 -0.5 5.06677787625e-07
0.275 -0.75 3.1428338345e-10
0.525 -0.8 2.48651676e-12
0.125 -0.8 4.344524268e-11
0.575 -0.05 8.96554405806e-08
0.475 0.25 7.72803634552e-08
0.475 0.05 3.75869294041e-07
-1.375 0.6 8.53136404158e-06
-1.375 0.7 9.88986526344e-07
0.225 -0.85 1.667598408e-11
0.375 -0.8 9.2644356e-12
0.025 -0.75 7.26149250508e-09
0.475 -0.15 9.05782868625e-08
0.375 0.55 2.88070038198e-08
0.325 0.45 1.68672567931e-07
0.375 0.3 6.96359043429e-07
0.425 0.7 1.79682861642e-09
0.325 0.65 1.33262769845e-08
0.175 0.65 3.20488739137e-08
0.525 0.65 1.3144611872e-10
0.225 0.5 4.46602108594e-07
0.325 0.8 3.110721029e-10
-1.725 -0.75 1.32531324378e-09
-1.625 -0.65 1.42235028283e-07
-1.525 -0.75 9.64320748707e-08
-1.625 -0.85 7.5776222895e-10
-1.725 -0.55 6.71468447413e-08
-1.575 -0.55 1.5680615462e-06
-1.725 -0.65 1.71691205549e-08
-1.475 -0.6 2.65149834258e-06
-1.825 -0.7 5.41667608772e-09
-1.625 -0.75 6.65450646696e-09
-1.825 -0.85 1.904677866e-11
0.525 0.15 1.03722830515e-07
-1.825 -0.45 8.54292698104e-08
-1.925 -0.65 7.253061585e-11
-1.975 -0.55 2.9395089286e-10
-1.675 -0.45 1.0845013042e-06
-1.825 -0.6 4.5006675325e-09
-1.725 -0.3 9.69468985389e-07
-1.625 -0.3 9.19708455263e-06
-1.475 -0.45 6.43108349477e-05
0.325 -0.45 6.95107685087e-08
0.275 -0.35 8.83900603058e-07
0.325 0.05 6.37009112153e-06
0.375 -0.05 2.13750515849e-06
0.075 0.55 1.50594343569e-06
-0.075 0.6 4.92772447631e-07
0.375 0.15 2.55176085477e-06
-1.975 0.55 5.8626255148e-10
-1.575 0.45 5.81091413911e-06
-1.775 0.3 1.1714632924e-06
-1.925 0.45 1.07211080512e-08
-1.725 0.4 6.00251002231e-07
-1.875 0.35 6.08904906532e-08
-0.275 0.65 7.71203762471e-06
-0.175 0.55 2.06858183922e-05
-1.825 -0.25 1.28211714596e-07
-1.925 -0.4 1.14744457016e-08
-1.775 -0.15 1.08907292612e-06
-1.925 -0.2 4.00411902026e-08
-2.025 -0.45 6.1338542474e-10
-1.275 0.6 7.18080045107e-06
-1.275 0.7 1.03499870882e-05
-1.075 0.7 2.84805423648e-05
-1.175 0.65 4.29457570107e-05
-2.025 0.45 3.92584458016e-09
-1.975 0.3 5.60378842024e-09
0.175 0.4 2.1013079324e-06
-1.975 0.0 2.44284103072e-08
-1.725 0.05 4.67070064429e-06
-1.875 0.0 2.85472302148e-07
-1.775 -0.05 2.64523131417e-06
-1.875 0.15 4.46413290073e-07
-2.025 0.15 3.94833106574e-09
-1.425 0.5 2.33207345585e-05
-1.475 0.65 3.90558010359e-07
-1.625 0.35 4.84100793275e-06
-2.025 -0.3 2.65066810139e-09
-1.975 -0.1 4.68800498984e-08
-1.675 -0.2 1.35404302139e-05
-1.875 -0.1 4.77431115641e-08
-1.675 0.2 1.12550959864e-05
-1.775 0.15 1.59435699499e-06
-1.625 0.05 4.78265379312e-05
0.125 -0.4 6.64975251629e-06
0.025 -0.45 6.7961514051e-06
-0.875 -0.8 2.69851527794e-06
-0.975 -0.95 2.69133722567e-07
-1.125 -0.85 4.20149929597e-07
-1.075 -0.75 9.6684294808e-06
-1.025 -0.85 2.63601592215e-06
-0.925 -0.7 3.94383288652e-05
-1.225 -0.8 7.46108262827e-06
-1.225 -0.9 1.71066270097e-08
-0.875 -0.9 3.62955192453e-07
-1.125 -0.95 6.49068011676e-08
-0.025 -0.65 2.96334521396e-07
-0.175 -0.6 8.61101658879e-06
-0.125 -0.5 1.87418229785e-05
-0.025 -0.55 2.20839536983e-06
-0.125 -0.7 2.95410868164e-07
-0.425 -0.95 3.23214314615e-08
-0.425 -0.85 2.98503511417e-07
-0.575 -0.85 1.21712909811e-07
-0.525 -0.75 3.42576704195e-06
-0.275 -0.85 3.25813116017e-08
-0.325 -1.0 3.3372277292e-10
0.325 -0.25 5.62286028822e-07
0.375 -0.15 1.08779537533e-06
0.175 -0.3 5.59041263215e-06
-0.075 0.5 1.12691188266e-05
-0.575 0.9 1.90701759693e-07
-0.675 0.9 9.86784373928e-08
-0.625 0.8 1.43816422799e-06
-0.725 1.0 4.64450040576e-08
-0.575 1.0 1.36709274702e-08
-0.775 0.85 8.94123565973e-07
-0.475 1.1 1.66931059216e-09
-0.825 0.95 1.97056797469e-06
-0.475 1.0 3.70979497152e-08
-0.575 0.7 2.01677202121e-05
-0.725 0.75 1.6722837316e-05
-0.225 1.0 4.1732764804e-10
-0.775 -0.9 2.81788577886e-08
-0.725 -0.8 4.37145629842e-06
-0.675 -0.9 1.3036962021e-06
-0.675 -0.65 0.000157380151564
-0.825 -1.0 3.54942362645e-09
-0.625 -0.75 1.52095780757e-05
0.075 0.4 1.86369009545e-05
0.225 0.15 1.38957224091e-05
-1.475 -0.85 1.81538312298e-08
-1.375 -0.75 7.16131811667e-07
-1.375 -0.85 3.13560774334e-08
-1.175 -0.65 1.2187007639e-05
-1.275 -0.65 1.19329570227e-05
-2.075 -0.15 1.71429660545e-08
0.275 -0.1 3.99549746306e-06
-0.475 0.75 2.99537849301e-06
-0.325 0.55 9.85913279595e-05
-1.525 0.3 2.6992834975e-05
-1.025 -0.5 0.000981811333375
-1.225 -0.45 0.00027975523895
-1.325 -0.4 0.000704916126683
-1.375 -0.5 0.00011351083636
-1.375 -0.6 1.12545918479e-05
-1.275 -0.55 0.000137646718565
0.225 -0.2 7.31674633734e-06
-0.525 -1.0 8.95240919376e-09
-0.475 -0.6 4.12127526446e-05
-1.425 -0.95 2.5098395834e-09
-1.675 -0.05 2.69893110011e-05
-1.475 0.4 3.14669759024e-05
0.225 0.3 6.20133318245e-06
-1.575 -0.4 4.36102284399e-06
-1.575 -0.2 7.4014243013e-05
-0.275 -0.65 5.71111703235e-06
0.175 -0.05 2.48056501806e-05
-0.775 -0.65 9.42446439378e-05
-0.475 0.65 3.08051265851e-05
-1.125 -0.55 0.000153841005208
-1.175 0.55 0.0002131219301
-1.325 0.5 7.1870718218e-05
-0.875 0.55 0.000665650534391
-0.825 0.75 1.47307925241e-05
-0.875 0.65 0.000129131688096
-0.875 0.4 0.0100027971516
-0.925 0.8 9.71047159201e-07
-0.775 0.6 0.000105422727011
-0.975 0.9 1.28267691743e-07
-0.975 0.7 1.93028044907e-05
-0.975 0.55 0.000249445337973
-1.025 0.8 4.69729274818e-06
-0.675 0.5 0.00103922523072
-0.725 0.4 0.0026912234654
-0.675 0.65 5.35559879197e-05
-0.225 -0.75 1.07677493876e-07
-0.325 -0.55 8.03393343718e-05
-0.125 -0.8 1.9055747826e-08
-1.525 -0.3 6.02947905207e-05
-0.375 -0.7 2.24842138135e-06
-0.775 -0.55 0.000585089819772
0.075 -0.25 3.27347824239e-05
0.125 -0.15 2.04868196751e-05
-0.125 0.4 9.76459704871e-05
-0.025 0.3 0.000122036911576
-1.025 -0.65 0.000162783107114
-0.575 0.6 8.43611466446e-05
-0.275 0.45 0.000286498665439
-1.075 0.6 6.63608510713e-05
-1.475 0.05 0.000390958811027
-1.525 -0.05 0.000259225266238
0.125 0.2 2.37416177128e-05
-1.425 -0.3 0.000114732588852
-1.475 -0.2 0.000351068052348
-0.475 0.55 0.000182362010739
-0.075 -0.4 4.20818121982e-05
-0.225 -0.45 0.000201923335389
-0.475 -0.5 0.000242172817143
-0.575 -0.6 1.53201118567e-05
-1.575 0.2 7.22420528864e-05
-0.025 -0.3 5.47182191353e-05
-0.875 -0.6 0.00025970697635
-1.425 0.3 0.000159813950914
-0.675 -0.55 0.000371408946453
0.125 0.05 5.30037121743e-05
-1.075 0.5 0.000766561851448
-1.225 0.45 0.00054387619176
-1.375 0.4 0.000153357521791
-1.125 -0.4 0.00216350719608
-0.425 0.4 0.0018021222174
-0.175 0.3 0.00051906933787
0.025 0.2 0.000115373615586
-0.575 0.5 0.000902775173393
-0.325 -0.35 0.00114050589695
-1.475 0.2 0.00047997954253
-1.375 0.2 0.00106165674097
-0.075 -0.2 0.000380827077679
0.025 -0.15 8.39918060311e-05
-0.575 -0.5 0.000747467693995
-0.525 -0.4 0.00253584212432
0.025 -0.05 0.000185005986141
0.025 0.05 0.000135731107205
-1.425 -0.05 0.00102526918567
-0.175 -0.25 0.00059694345554
-1.325 0.3 0.000787271855706
-0.075 -0.1 0.00022236523323
-0.925 -0.5 0.00130022997028
-0.825 -0.45 0.00267318495633
-1.225 -0.3 0.00291170039988
-0.075 0.15 0.000369638775351
-0.775 0.5 0.00184465672308
-0.975 -0.4 0.00583195557818
-0.375 -0.45 0.000905626407677
-1.375 -0.2 0.000837566164076
-1.275 -0.2 0.00438658344639
-0.325 0.35 0.00180315612883
-0.425 -0.3 0.00431059336081
-0.625 0.4 0.00284733320421
-0.275 0.25 0.00101246485927
-1.175 0.3 0.00485895241608
-1.125 0.4 0.00306980911293
-1.275 0.2 0.00256729181107
-0.125 0.05 0.00102837808849
-0.225 -0.15 0.00188575771719
-1.325 0.05 0.00476712738438
-0.725 -0.45 0.0023401118686
-0.225 0.15 0.00193576910639
-0.775 0.3 0.0116251486312
-1.025 0.4 0.00209931173201
-0.325 -0.1 0.00437062892988
-0.175 -0.05 0.00120579123269
-1.325 -0.1 0.00359364124045
-1.225 -0.1 0.00674568649688
-0.375 -0.2 0.00524371544843
-0.625 -0.35 0.00503778684926
-0.275 0.0 0.0041517408858
-0.375 0.2 0.00452389633849
-1.075 0.25 0.0110749210607
-1.075 -0.3 0.0113277944888
-0.975 0.3 0.0147360106611
-0.475 -0.15 0.016598913431
-1.225 0.1 0.0080390661455
-0.775 -0.35 0.0128164166976
-0.575 -0.25 0.0163207868594
-0.325 0.1 0.00412254196992
-0.875 -0.25 0.0259596726448
-0.875 0.2 0.0393484547576
-0.475 0.3 0.00645341385726
-0.575 0.3 0.00538488364292
-1.175 -1.38777878078e-17 0.0120352561699
-1.125 -0.1 0.0104998834172
-0.425 0.05 0.00981419651871
-0.475 0.15 0.0149565985412
-0.675 0.3 0.00860386440777
-0.625 0.2 0.0245655564989
-0.725 0.2 0.0139190622085
-0.975 -0.25 0.012293241544
-1.175 -0.2 0.01035011381
-1.025 -0.15 0.02950240832
-1.025 0.15 0.0225348472919
-0.675 -0.25 0.0127917677753
-0.775 -0.2 0.0335833789688
-1.125 0.1 0.0128932551659
-0.425 -0.05 0.0113527368442
-1.075 -1.38777878078e-17 0.0248864871168
-0.525 1.38777878078e-17 0.0230587378633
-0.625 0.05 0.0520529649624
-0.625 -0.1 0.0395759774957
-0.775 0.1 0.0626432609683
-0.925 -0.15 0.0252232962533
-0.925 0.05 0.0497011149393
-0.975 -0.05 0.0445425648269
-0.775 -0.05 0.084389195267
-0.875 -0.05 0.0403313482379
