-0.225 0.4 1.0666e-05
-0.075 0.4 1.3367e-06
-0.175 0.2 0.0003707448
-0.275 0.3 0.0002187675
-0.125 0.3 3.94941e-05
-0.375 0.35 0.0005978437
-0.175 0.5 5.195e-07
-0.325 0.45 0.0001415725
-0.525 0.45 0.0004188592
-0.475 0.3 0.0039036857
-0.625 0.5 0.000196305
-0.425 0.5 6.53913e-05
-0.475 0.65 6.612e-07
-0.575 0.6 4.2624e-06
-0.825 0.5 0.0006673401
-0.675 0.6 4.1813e-06
-0.575 0.35 0.002733544
-0.725 0.5 0.0006022811
-0.675 0.35 0.003790268
-0.075 -0.1 0.0001471588
-0.025 0.2 7.5343e-06
-0.025 1.38777878078e-17 1.75618e-05
0.025 -0.15 5.84e-08
0.125 0.25 7.414e-07
-0.075 0.1 7.39991e-05
0.075 -0.05 3.8076e-06
0.175 0.05 3.13e-07
0.075 0.1 8.384e-07
-0.225 0.1 0.000749047
0.225 0.2 2.838e-07
-0.925 -0.5 0.0008606216
-1.075 -0.3 0.0018054199
-1.025 -0.4 0.0007008471
-1.175 -0.4 3.69284e-05
-1.075 -0.5 0.0001003956
-0.925 -0.3 0.0055823813
-0.825 -0.4 0.0020128496
-0.975 -0.2 0.0094153131
-1.075 -0.6 3.44308e-05
-0.975 -0.6 6.92416e-05
0.025 0.3 1.1862e-06
-0.975 0.6 1.784e-07
-0.925 0.4 0.0015181895
-1.025 0.4 0.0003828956
-0.875 0.3 0.0125059009
-0.975 0.5 0.0001382858
-1.075 0.55 2.13612e-05
-0.875 0.15 0.0281109867
-0.225 0.0 0.0010850487
-0.825 -0.25 0.0206306639
-0.825 -0.55 0.0001076396
-0.325 0.6 2.616e-07
-0.425 0.15 0.0083591306
-0.325 0.2 0.0044457985
-1.025 0.25 0.0030959704
-1.175 0.35 1.79148e-05
-0.775 0.35 0.0054339751
-1.125 0.45 9.5801e-06
-1.125 0.25 0.0005426219
-0.975 0.15 0.0100342772
-1.075 0.15 0.0037382419
-1.125 -0.1 0.0026007346
-1.225 -0.3 3.11828e-05
-1.025 -0.05 0.0138228355
-1.175 -0.2 0.0005101697
-1.225 0.05 0.0010890818
-1.125 0.05 0.0022456514
-1.275 -0.05 0.0001653218
-1.225 0.2 0.000171751
-1.325 0.05 1.49926e-05
-1.275 0.3 7.5492e-06
-0.325 0.05 0.004252377
-0.175 -0.2 0.000175217
-0.475 -0.15 0.0181013718
-0.325 -0.2 0.0021268682
-0.225 -0.1 0.0009098455
-0.375 -0.05 0.0163493339
-1.275 -0.15 0.0002147562
-1.375 -0.05 3.84809e-05
-1.025 0.05 0.0132901723
-0.725 0.25 0.0165512173
-0.625 0.25 0.0137572774
-0.725 -0.35 0.0135259074
-0.675 -0.5 0.0005351378
-0.575 -0.45 0.0003272799
-0.625 -0.35 0.0038596436
-0.525 -0.3 0.0087881236
-0.725 -0.6 9.62221e-05
-0.925 0.05 0.0283662352
-0.875 -0.15 0.0344767896
-0.925 -0.05 0.0237273387
-0.275 -0.3 0.0007639683
-0.225 -0.4 2.11805e-05
-0.475 -0.45 0.0008270181
-0.425 -0.25 0.0085303815
-0.375 -0.35 0.001238324
-0.625 -0.2 0.0416121736
-0.425 -0.55 3.15423e-05
-0.475 0.05 0.0271722126
-0.525 0.2 0.0162728038
-0.575 0.0 0.0502894805
-0.825 -0.05 0.0665016618
-0.775 0.15 0.0312272287
-0.625 -0.6 2.86939e-05
-0.775 -0.15 0.0554505473
-0.675 0.15 0.0353163499
-0.575 0.1 0.0434610621
-0.825 0.05 0.035908735
-0.575 -0.1 0.0459225189
-0.675 -0.05 0.1034217385
-0.725 0.05 0.0803059076
