0.325 -0.05 2.7214929e-07
0.425 0.15 3.44853e-09
0.525 1.38777878078e-17 8.764e-10
0.375 0.05 3.944813e-08
0.575 -0.1 2.504e-10
0.475 -0.1 3.13e-10
0.475 -0.2 1.3268e-10
0.275 0.1 4.5708416e-07
0.575 0.1 3.13e-11
0.325 -0.2 3.814956e-08
0.225 -0.3 9.91654e-09
0.125 -0.15 2.1430027e-06
0.075 -0.25 4.06840152e-06
0.175 -0.05 3.22568932e-06
0.375 -0.3 7.008e-11
-1.225 0.6 7.44349322e-06
-0.975 0.4 0.00153038107036
-1.075 0.5 0.0001414734812
-1.125 0.65 1.04480992e-06
-1.275 0.7 1.4876738e-07
-0.975 0.65 1.624403882e-05
-0.925 0.55 0.00027731541424
-0.825 0.6 3.941493241e-05
-1.175 0.45 0.00014167321201
-1.075 0.75 3.10629319e-06
-1.175 0.75 2.148574e-08
-0.225 0.5 2.200041057e-05
-0.125 0.6 1.0161832e-07
-0.275 0.6 2.14778474e-06
-0.025 0.55 2.0926949e-07
0.075 0.6 5.93354e-09
0.025 0.7 3.1244e-10
-0.075 0.4 6.52418013e-06
-0.175 0.75 3.81307e-09
-0.925 0.75 1.17178361e-06
-0.275 0.7 5.145558e-08
-0.425 0.6 1.853186191e-05
-0.425 0.7 1.368096046e-05
-0.375 0.5 0.00014602415387
-0.525 0.75 2.77002348e-06
-0.525 0.55 0.0001490449973
-0.325 0.4 0.00046003364376
0.175 0.3 2.5061062e-07
0.025 0.15 3.583590198e-05
0.125 0.05 6.19039794e-06
0.325 0.2 1.8085668e-07
0.125 0.2 5.58281813e-06
0.025 0.45 3.00492286e-06
0.075 0.3 1.509922531e-05
0.225 0.45 8.40174e-09
0.175 0.55 7.638264e-08
0.175 0.65 3.86433e-09
0.125 0.4 1.0612511e-06
0.175 -0.4 1.3696508e-07
0.025 -0.15 1.979758905e-05
-1.375 0.35 8.66930621e-06
-1.425 0.15 4.018785015e-05
-1.475 0.25 2.047781626e-05
-1.525 0.1 7.05957706e-06
-1.325 0.1 0.00043531379505
-1.625 0.2 3.807652e-08
0.275 0.35 1.6383338e-07
0.025 -0.05 3.416271889e-05
-1.425 0.45 1.2742503e-07
-1.525 0.35 8.09614784e-06
-1.325 0.25 8.936889424e-05
-1.225 0.2 0.00126605678366
-1.275 0.35 0.00012642057841
-1.325 0.45 2.269148015e-05
-1.025 0.2 0.0115434814418
-1.075 0.1 0.0125546730817
-0.775 0.1 0.0775024544636
-0.925 0.15 0.0407226245893
-0.925 0.3 0.0148230293732
-1.125 0.2 0.00479235232354
-0.975 1.38777878078e-17 0.0352204994572
-1.425 0.6 1.92532221e-06
-0.025 0.05 0.00011048263958
-0.075 0.25 9.612844773e-05
-0.175 0.35 6.490612639e-05
-0.475 0.35 0.00510691319503
-0.275 0.3 0.00137820204543
-0.125 0.1 0.00043060225188
-0.175 0.2 0.00112124041723
-0.425 -0.5 0.00033232795857
-0.575 -0.5 0.001213968925
-0.475 -0.65 8.33639265e-06
-0.575 -0.6 5.266486262e-05
-0.575 -0.7 1.389109455e-05
-0.325 -0.65 8.7605258e-07
-0.275 -0.55 2.435458265e-05
-1.175 -0.4 0.00057956106449
-1.125 -0.5 0.0002349414768
-1.075 -0.6 6.108626225e-05
-0.975 -0.45 0.00093895367867
-1.075 -0.35 0.00231646987725
-1.025 -0.7 5.5179784e-07
-1.225 -0.65 7.59891134e-06
-0.975 -0.6 0.00011650433661
-1.125 -0.7 5.5664072e-07
-0.925 -0.7 4.95897322e-06
-1.225 -0.55 1.452141048e-05
-0.875 -0.6 8.944046672e-05
-0.975 -0.3 0.00717591634433
-1.175 0.3 0.0011628218652
-1.575 0.0 1.17110842e-06
-1.325 -0.05 0.00030261929989
-1.225 0.0 0.00173893381084
-1.425 -0.2 2.051832545e-05
-1.475 -0.1 2.345193312e-05
-1.525 -0.2 1.606642753e-05
-1.425 -1.38777878078e-17 6.535054866e-05
-1.625 -0.15 3.5414878e-07
-1.325 -0.3 0.00016370638112
-1.325 -0.15 0.00062611679653
-0.775 -0.6 0.00014662921228
-0.725 -0.8 1.76748195e-06
-0.575 -0.35 0.00680388120855
-0.825 -0.7 5.51651026e-06
-0.675 -0.65 2.314962467e-05
-0.725 -0.5 0.00114408317643
-0.825 -0.5 0.00058469011759
-0.825 0.7 3.06947971e-06
-0.825 0.5 0.00074028054722
-0.875 0.4 0.00573528654223
-0.725 0.65 3.678086607e-05
-1.225 -0.2 0.00144838750973
-1.375 -0.6 2.5717062e-07
-1.325 -0.5 5.35074905e-06
-1.275 -0.4 0.0001060776475
-1.525 -0.35 6.7508046e-07
-1.425 -0.4 2.21272471e-06
-1.475 -0.55 2.3306277e-07
-0.075 -0.2 7.142130062e-05
0.025 -0.35 4.93637446e-06
-0.075 -0.05 0.00021251853309
-0.125 -0.3 0.00012292222074
-1.025 -0.8 3.8730448e-07
-0.825 -0.8 3.66985513e-06
-0.325 -0.3 0.00153956358911
-0.175 -0.4 9.752914863e-05
-0.075 -0.45 1.903903702e-05
-0.275 -0.2 0.00143498092397
0.075 -0.5 1.3050268e-07
-1.125 -0.2 0.00700812206983
-0.675 0.5 0.00106475198647
-0.625 0.65 2.402197533e-05
-1.075 0.35 0.00283380565959
-0.625 0.75 1.46905489e-06
-0.575 0.45 0.00055827912214
-0.725 0.4 0.00502845367128
-0.625 0.35 0.00374608276879
-0.175 -0.15 0.00105808327224
-0.875 -0.4 0.00277112504769
-0.275 0.1 0.00293817357002
-0.225 -1.38777878078e-17 0.0011790829039
-0.475 -0.35 0.00198969438119
-0.375 -0.4 0.00103704489879
-0.325 -0.05 0.00649367209268
-1.175 -0.1 0.00458177303068
-0.375 -0.15 0.00581627589884
-0.375 0.05 0.0118158393729
-0.775 -0.35 0.0199269192617
-0.675 -0.4 0.00285598552098
-1.075 -1.38777878078e-17 0.0158512676403
-0.525 0.65 5.35845906e-06
-1.175 0.1 0.00248814966156
-0.375 0.25 0.00649714756145
-0.525 -0.25 0.0138356139918
-0.675 -0.25 0.0317637102545
-0.675 0.25 0.0228427193144
-0.775 0.25 0.0208863123038
-0.875 -0.25 0.0325256302982
-0.975 -0.1 0.04341589045
-0.575 0.25 0.00844753024509
-0.475 0.15 0.0214334177037
-1.025 -0.2 0.0136920486016
-0.475 -0.1 0.0177901127889
-0.775 -0.15 0.059200053082
-0.575 -0.15 0.0270883922555
-0.475 0.0 0.0309862210322
-0.625 0.05 0.0424063624773
-0.625 0.15 0.0396881473142
-0.875 -1.38777878078e-17 0.0764348986049
-0.675 -0.05 0.0573853249082
-0.575 -0.05 0.0341615911635
-0.775 -0.05 0.0502350182606
