0.875 -0.55 4.410111822e-13
0.775 -0.6 1.2841468014e-12
0.875 -0.4 1.690815448e-12
0.875 -0.65 3.4477308e-15
0.975 -0.6 3.831408e-16
0.975 -0.5 8.9495372e-15
0.775 -0.45 4.3741307013e-12
0.775 0.4 1.40804408093e-10
0.725 0.5 1.063503017e-10
0.825 0.55 1.5939153471e-12
0.875 0.35 9.6852933275e-12
0.675 0.4 7.09899870311e-10
0.925 0.6 1.05168e-16
0.925 0.5 7.241411471e-13
0.825 0.25 1.78126515397e-10
0.725 0.25 1.63434848344e-09
0.925 0.25 2.3497037984e-12
0.775 0.65 1.3780053375e-12
0.675 0.6 9.40389249523e-11
0.725 -0.7 2.598369898e-13
0.575 -0.7 5.33971431489e-11
0.525 -0.85 6.585241236e-13
0.675 -0.8 1.005185952e-13
0.775 -0.8 2.438784e-16
0.475 -0.65 6.8430788268e-10
0.925 -0.8 1.68192e-17
0.575 -0.55 8.51846514273e-10
0.725 -0.95 1.68192e-17
0.675 -0.6 1.03948402341e-10
0.675 -0.4 9.11469224604e-10
0.975 -0.2 2.2883334688e-12
1.075 -0.05 8.652084738e-13
1.175 -0.05 9.57720576e-14
1.125 0.05 5.032188264e-13
0.975 -0.1 3.6705702239e-12
0.975 0.05 6.66620357529e-11
1.125 -0.15 2.204854258e-13
1.025 0.15 5.1400336608e-12
1.325 1.38777878078e-17 8.11296e-16
1.125 0.2 1.4895071204e-12
1.275 0.15 4.05648e-16
0.425 -0.5 1.75905720491e-08
0.475 -0.75 1.78919539318e-10
0.575 -0.4 2.7664362005e-09
0.775 -0.3 1.8198956629e-10
0.925 -0.3 2.8582960516e-12
0.625 -0.3 8.04649527357e-09
0.875 -0.15 3.13003946652e-11
0.725 -0.2 3.10121436685e-09
1.025 -0.35 8.514022787e-13
1.075 -0.25 1.003362956e-13
0.875 -0.05 1.08982083693e-10
0.975 0.35 1.53484440732e-11
-1.375 1.05 1.16042032128e-11
-1.475 1.0 3.33604333197e-11
-1.275 0.95 3.50198450185e-09
-1.475 0.9 6.58160651219e-09
-1.225 1.05 2.0542753858e-12
-1.325 0.85 7.11628420407e-08
-1.375 0.95 1.65675573222e-10
-1.575 1.0 2.007946649e-12
-1.475 1.15 7.14083424e-14
-1.575 1.1 1.963729416e-13
-1.225 0.85 7.44802940142e-07
0.325 -0.75 7.3817306549e-11
0.425 -0.9 5.21248914e-13
0.625 -0.9 2.48651676e-14
1.225 0.25 6.82025588e-14
0.875 0.1 1.03854816992e-10
0.775 1.38777878078e-17 2.69316339247e-09
0.775 0.15 1.57999039226e-09
0.675 0.15 2.06666704654e-08
0.375 -0.65 2.78510029326e-09
0.025 0.8 5.60949230535e-09
0.175 0.8 2.05199767716e-09
0.175 0.9 6.38911955886e-11
0.025 1.0 4.34461874143e-11
-0.075 0.85 7.89369674683e-09
0.075 0.9 4.69261697744e-10
0.225 1.0 3.031256926e-13
0.075 1.1 1.808088645e-13
0.125 0.7 5.55938692442e-08
-0.175 1.0 2.80444851581e-10
0.325 0.75 3.36233170753e-09
0.275 0.85 3.28652820657e-10
0.325 0.95 3.00889407389e-11
0.475 0.8 3.1595149807e-10
0.275 0.6 1.16183438366e-07
0.425 0.9 5.17383662998e-11
-1.725 0.85 2.88384197041e-10
-1.575 0.85 5.55204495946e-09
-1.425 0.75 1.03743849538e-07
-1.575 0.7 2.07105158561e-07
0.775 -0.1 6.43147804708e-10
0.525 -0.25 7.68083617484e-08
0.225 -0.75 1.62360182764e-09
0.275 -0.6 2.99393985132e-08
0.275 -0.85 2.5652726148e-12
0.175 -0.65 1.83859993305e-07
0.125 -0.8 6.76866268386e-10
0.625 0.3 7.91029860867e-09
0.475 -0.4 5.45127287812e-08
0.075 -0.7 2.56433163078e-08
0.175 -0.9 3.6731007012e-12
0.325 -0.95 6.670393632e-13
-0.025 -0.85 7.17937949577e-10
-1.675 -0.65 1.80353964492e-07
-1.725 -0.75 1.02623000353e-09
-1.575 -0.65 5.68729117881e-07
-1.525 -0.75 5.89546561155e-08
-1.625 -0.8 1.62153625701e-08
-1.825 -0.95 1.55361801522e-11
-1.725 -0.85 2.36872024425e-09
-1.825 -0.85 2.95511837364e-11
-1.825 -0.75 3.36161013644e-10
-1.925 -0.9 9.52338933e-13
-1.975 -0.75 5.0310851209e-11
-1.675 -0.55 3.1135392656e-07
-1.475 -0.65 2.89989080367e-06
0.675 -0.05 2.09926990527e-08
0.575 -0.15 1.05071134692e-07
0.025 -0.6 8.37539665739e-07
-0.025 -0.75 3.13109786324e-08
0.175 -0.55 3.57394454079e-07
0.575 0.4 3.30716929834e-09
0.325 -0.45 1.33572508893e-07
-1.125 0.95 2.06180611212e-08
-1.225 0.7 1.40796983969e-05
-1.325 0.7 9.63256185706e-06
-1.975 -0.65 3.29067671947e-11
-1.875 -0.5 7.67759987749e-09
-1.775 -0.65 6.14937615996e-09
-1.775 -0.55 6.96308405281e-08
-1.875 -0.6 6.78688358206e-09
-1.975 -0.55 5.98036039592e-10
-1.825 -0.4 6.37313308966e-07
-2.075 -0.7 1.68734631185e-11
0.575 1.38777878078e-17 3.46810060995e-08
0.525 0.5 4.12239280665e-09
0.425 0.6 1.17138678438e-08
0.425 0.5 9.87936682331e-08
0.575 0.65 1.25700461124e-09
0.475 0.7 2.26353963452e-09
0.625 0.5 6.90578390535e-10
-1.675 0.75 1.86359641507e-08
0.025 0.65 6.65692520113e-07
0.475 0.4 2.03664268935e-08
0.675 0.7 1.10718396656e-11
-1.125 0.7 1.73720464271e-05
-0.975 0.9 4.88692137473e-07
-1.075 0.85 1.64915288764e-06
-1.825 0.85 1.43185229716e-10
-1.575 0.55 2.15681437272e-06
-1.825 0.75 9.90944785868e-10
-2.075 -0.45 7.07798219955e-10
-1.925 -0.4 2.20041276975e-08
-2.125 -0.6 8.8185267858e-12
-2.025 -0.3 6.23306040436e-09
0.575 0.85 6.221442058e-12
-1.725 0.65 9.49870330344e-08
-1.725 0.55 1.63336153555e-07
-1.825 0.55 2.59211426496e-08
-1.825 0.65 1.42722339336e-08
-1.925 0.65 3.41626394747e-10
-0.375 -1.1 4.39436228386e-10
-0.325 -0.95 4.96578473458e-09
-0.225 -1.0 5.97202486105e-10
-0.225 -1.1 6.6744554584e-12
-0.425 -1.0 6.44321101311e-09
-0.575 -1.0 2.44955916536e-08
-0.225 -0.9 2.20815089665e-09
-0.375 -0.85 1.26259189303e-07
-0.275 -0.8 2.50336163374e-07
0.575 0.2 1.95470474186e-08
0.525 0.3 4.4938971161e-08
-0.275 0.85 3.28108190146e-07
-0.325 0.95 2.80828484428e-08
-0.175 0.9 2.30283202995e-08
-0.125 1.15 4.1732764804e-12
-0.325 1.05 1.2107668845e-10
-0.175 0.8 1.19637982368e-07
-2.025 0.45 2.38363083204e-09
-1.925 0.45 2.32268098721e-08
-1.825 0.4 2.65696184869e-07
-1.975 0.55 2.65087245172e-09
-1.675 0.45 2.16015518723e-06
-2.025 0.65 3.3279905061e-10
-1.975 0.35 8.36774360812e-09
-1.875 -0.25 1.98457961214e-06
-2.175 -0.35 1.08218050254e-10
-2.125 -0.25 1.4108975385e-08
-1.575 -0.95 4.91258755381e-10
-1.525 -0.85 1.78152814123e-08
-1.675 -0.95 6.0620978316e-11
-1.425 -0.8 2.76254216759e-07
-1.425 -0.9 2.82249412585e-08
-1.475 -1.0 5.55119829896e-10
-1.325 -0.8 9.02337219045e-07
-1.725 -0.45 1.29040671346e-06
-1.975 0.75 1.35986761557e-11
-0.525 1.1 1.05912800681e-09
-0.425 0.9 5.74213090428e-07
-0.675 1.05 5.19628039144e-09
-0.475 1.0 1.84850824916e-08
-0.575 1.0 3.85841699633e-08
-0.375 1.15 1.08395604088e-09
-0.575 0.9 2.24762822881e-07
0.675 0.05 2.21647018277e-08
-1.225 -0.9 2.12719902496e-07
-1.325 -0.95 8.27463209767e-09
-1.375 -0.7 7.55038252475e-06
-2.075 -0.15 1.36885971516e-08
-1.975 -0.2 2.09866534947e-08
-2.225 -0.15 5.30133620278e-11
-2.025 -0.05 5.80761407198e-08
0.525 0.1 2.17653820578e-07
0.475 0.2 9.55510558374e-07
0.475 -0.1 3.07426674475e-07
0.425 -0.2 6.99886831824e-07
-0.825 -0.9 2.92814738103e-07
-0.825 -0.8 1.60792844689e-05
-0.925 -0.9 7.60583621059e-07
-0.875 -1.0 3.78732792541e-09
-0.775 -1.05 2.83953890116e-10
-1.025 -0.9 1.65193078845e-07
-0.725 -0.85 2.363576439e-06
-0.675 -0.95 5.74564643903e-09
-2.125 0.35 3.82020201124e-10
-1.875 0.3 3.41826010548e-07
-2.125 0.2 1.24501102348e-09
-2.175 0.45 3.92584458016e-11
-1.975 0.05 1.01590166369e-07
-1.975 0.2 1.76076284757e-07
-1.825 0.1 3.67093970441e-06
-1.875 1.38777878078e-17 4.92344441646e-07
-2.125 0.0 5.80285207877e-09
-1.575 -0.55 2.14164026405e-06
0.075 0.55 1.13030820215e-06
0.175 0.55 1.86029463947e-06
-1.725 0.35 1.41259271886e-06
-1.775 0.25 3.57719342887e-06
-0.075 0.75 2.56344891092e-07
-0.325 0.75 2.03089797626e-06
-0.225 0.7 4.03507734939e-06
0.375 0.4 4.61828556662e-07
-0.225 -0.7 1.47305222914e-06
-0.075 -0.65 1.39361499317e-06
0.075 -0.5 4.49772768079e-06
-0.125 -0.75 4.55498246102e-07
-0.075 -0.55 4.88353291363e-06
0.375 -0.35 1.39700686516e-06
-0.575 -0.7 1.93283174417e-05
-0.525 -0.85 8.48224458032e-07
-0.825 -0.7 9.61736839594e-05
-0.625 -0.85 3.09477964003e-07
-0.725 -0.6 0.000190309736315
-0.675 -0.75 1.12949976875e-05
-0.625 -0.6 0.000220383533441
-0.625 -1.1 1.79048183875e-10
-1.475 0.65 2.08744335475e-06
-1.725 -0.3 1.09426861422e-05
-1.825 -0.15 2.85203444068e-06
0.225 0.45 3.07741319983e-06
-0.775 0.9 7.17093855476e-07
-0.725 0.8 1.14295245353e-05
-0.675 0.9 5.05094467567e-07
-0.625 0.8 6.27608846256e-06
0.475 1.38777878078e-17 4.72880582255e-07
-1.175 -0.7 2.49428930279e-05
-1.175 -0.8 4.61599667595e-06
-1.175 -1.0 3.6891630804e-09
-1.275 -0.7 4.78016896829e-06
-1.175 -0.6 3.40002053468e-05
-1.075 -0.75 1.45625173396e-05
-1.775 -0.05 4.74913286356e-06
-1.925 -0.1 1.00944809143e-07
-1.625 -0.45 1.00888245064e-05
-1.475 -0.55 8.63773130519e-06
-0.075 0.55 6.78568758056e-06
-0.175 -0.6 8.30304552713e-06
-0.375 -0.7 4.85959032936e-06
0.375 0.25 1.55592601849e-06
0.125 -0.4 5.42693612803e-06
-0.925 -0.8 5.12472218442e-06
-0.175 0.6 5.35027605534e-06
-0.175 0.5 5.67807543117e-05
-1.375 -0.6 1.16703795071e-05
-0.475 -0.75 5.16454937704e-06
-0.525 0.8 2.40263222228e-06
-0.875 1.0 5.58055530262e-08
-0.825 0.8 3.71358101715e-06
-0.725 0.7 9.95161343215e-05
-1.575 -0.15 0.000269964975387
-1.675 -0.1 1.78836851137e-05
-1.725 0.1 3.80899888664e-05
-1.475 0.55 6.08578296409e-06
-1.525 0.45 2.77650423324e-05
-1.675 0.25 7.64190791007e-06
-1.125 -0.9 2.99385910619e-07
-0.975 -0.65 0.000178642274225
-0.975 -1.0 5.8530206341e-08
0.225 -0.45 1.41193905425e-06
0.275 -0.25 3.7206825541e-06
-1.325 0.6 5.46074943939e-05
0.025 0.45 1.16664060066e-05
0.325 0.1 5.75196952268e-06
0.225 0.3 9.82060723186e-06
0.375 0.0 4.25369632738e-06
0.375 -0.1 3.20003061228e-06
-0.675 0.6 9.54006801027e-05
-0.625 0.7 1.63506966126e-05
-0.325 -0.55 0.000101278465413
-1.625 -0.25 4.58601878088e-05
-1.025 0.75 1.08321280142e-05
-0.925 0.8 5.38498345143e-06
-0.875 0.7 3.61416969619e-05
-1.525 -0.45 3.81669597205e-05
0.125 0.35 1.65008719467e-05
0.275 0.2 1.311847257e-05
-0.525 0.7 1.61207488452e-05
-1.175 0.6 7.21708017807e-05
-0.025 -0.4 4.13724129493e-05
-0.175 -0.45 6.36238232749e-05
-0.475 -0.65 7.45181947007e-05
-0.375 0.6 3.36578263455e-05
-0.275 0.55 0.00012244534248
-1.425 0.45 6.20707866842e-05
0.175 -0.3 9.38393717086e-06
0.225 -0.15 1.83389493291e-05
0.275 -0.05 8.266878586e-06
-1.575 0.3 8.23591054794e-05
-1.275 -0.6 5.19217951363e-06
0.125 -0.2 2.94342380844e-05
-0.825 0.6 0.000261851502595
-1.525 -0.3 0.000145685986672
-0.975 0.65 6.52042485443e-05
-0.875 0.9 1.05844507746e-06
-1.275 0.5 0.000322720675698
-1.625 -1.38777878078e-17 0.000152318984814
-1.625 0.15 8.17326477185e-05
-0.575 0.6 9.00266356246e-05
-0.075 0.4 7.69247697896e-05
-1.425 -0.45 9.64781512766e-05
-1.275 -0.5 0.000220846620712
-1.525 0.15 0.00021551275235
-1.125 0.5 0.00069674232985
0.125 0.2 5.74623055222e-05
0.025 0.25 8.04408159538e-05
-0.425 -0.5 0.000455434219198
-0.525 -0.55 0.000314366399894
0.225 0.05 3.98644866589e-05
-1.075 -0.65 3.73587045366e-05
-1.075 -0.5 0.00092508803134
-0.475 0.55 0.000256245321634
-0.825 -0.6 5.60974220536e-05
-0.825 -0.5 0.00172386887092
0.125 1.38777878078e-17 6.64299167489e-05
0.075 -0.1 0.000130292223843
-1.475 0.05 0.000674610967994
-0.925 0.55 0.00087536001079
-1.025 0.5 0.000971030344154
-1.075 0.6 0.000127636476409
-1.475 0.35 9.73893725221e-05
-1.425 0.25 0.00076991859862
0.075 -0.3 2.95577115097e-05
-0.075 -0.25 0.000160156086076
-1.375 0.35 0.00054833480902
-0.125 -0.35 0.000131028449212
0.025 -0.2 0.000111336626131
-1.225 0.4 0.000946725035125
-0.375 0.45 0.000638112526016
-1.425 -0.25 0.000777219234532
-0.975 -0.55 0.000531901637943
-1.375 -0.35 0.000568170493958
-1.225 -0.4 0.00140030245585
-0.225 0.4 0.000345935904618
-0.075 0.25 0.000296234225824
-1.175 -0.5 0.000559265437583
-1.475 -0.05 0.00140976643089
0.075 0.1 0.00010863843535
-0.675 -0.5 0.0027231198493
-0.575 -0.4 0.00364404949543
-0.225 -0.3 0.00069162635167
-0.275 -0.4 0.000877801217506
-0.675 0.5 0.000996166091421
-0.025 0.05 0.000328693593539
-0.325 0.35 0.00183006530194
-0.525 0.45 0.00146984541165
-0.075 -0.1 0.000638120378666
-0.925 -0.45 0.00393456930145
-0.475 -0.4 0.0020840155926
-0.175 -0.2 0.000614730394593
-0.775 0.5 0.00151107412934
-0.625 0.4 0.00261898025124
-1.325 -0.25 0.00251564555879
-1.275 0.3 0.00418105498549
-1.375 0.15 0.00323979188695
-1.375 -0.15 0.00221333893241
-0.225 0.2 0.00111201590101
-0.875 0.4 0.0061514532547
-1.225 -0.25 0.00487611600309
-0.125 0.05 0.00145386823645
-0.025 0.15 0.000277000630594
-0.175 0.3 0.000792823121155
-1.125 -0.4 0.00349341113587
-0.775 -0.4 0.00437245696541
-0.475 0.3 0.00545663953336
-0.375 -0.3 0.00354277382254
-1.125 0.3 0.0048399580745
-1.075 0.4 0.00305243710966
-0.225 -0.1 0.00190011931977
-0.475 -0.2 0.0097856569474
-0.975 0.4 0.00339425665568
-1.375 0.05 0.00211796786941
-1.125 -0.25 0.0101065192765
-1.275 0.05 0.00747445241092
-1.325 -0.05 0.00466423759914
-0.375 0.2 0.00448102865356
-0.275 0.1 0.00271472791355
-0.825 -0.3 0.0154226109574
-0.325 -0.15 0.0042207125873
-0.675 -0.25 0.0229846390809
-0.525 -0.3 0.00334522864265
-1.175 0.2 0.00984705869725
-1.275 -0.15 0.00500143656466
-0.725 0.4 0.00320659346511
-0.575 0.3 0.00588524734169
-1.025 -0.3 0.0130927354456
-0.425 0.1 0.00956223165619
-1.175 0.05 0.0121413005603
-0.275 0.0 0.00583157046746
-0.775 0.3 0.0120286443948
-0.675 0.3 0.0077603068475
-0.925 -0.3 0.0106955009478
-0.525 0.2 0.0160935192939
-0.925 0.3 0.0164178114615
-0.425 -0.1 0.00902381378017
-1.025 0.3 0.00593684318669
-0.975 0.15 0.0341802670329
-0.575 -0.2 0.0197840594855
-0.675 0.15 0.032354187477
-1.175 -0.15 0.0132958844165
-1.075 -0.15 0.0225056520663
-1.075 0.2 0.0197759651299
-1.225 -0.05 0.0104102585929
-1.125 -0.05 0.015951885348
-0.575 0.05 0.026946379426
-0.525 -0.05 0.0300194462465
-1.075 0.05 0.0275158439822
-0.825 0.2 0.0202037536884
-0.625 -0.05 0.0243464214145
-0.975 -0.1 0.0432712434374
-0.775 0.1 0.0369923170355
-0.875 -0.15 0.0444815157059
-0.775 -0.2 0.0279094418957
-0.725 -0.05 0.049731552028
-0.975 1.38777878078e-17 0.0519547242359
-0.875 0.1 0.0233424443407
-0.825 1.38777878078e-17 0.0601457918861
-0.425 0.0 0.00367727787823
-0.675 0.05 0.0291965517885
