-0.175 0.2 3.66e-05
-0.125 0.05 0.00017372
-0.025 0.15 1.962e-05
-0.225 0.3 0.00014275
-0.275 0.15 0.00126832
-0.375 0.25 0.00208686
0.075 0.05 2.92e-06
-0.275 0.0 0.00215117
-0.275 0.4 4.755e-05
-0.475 0.3 0.00206019
-0.425 0.15 0.0087434
-0.125 0.35 2.2e-06
-0.575 0.35 0.00367083
-0.475 0.45 6.67e-06
-0.625 0.45 0.000332
-0.675 0.35 0.00259599
-0.575 0.55 2.76e-06
-0.375 0.5 2.616e-05
-0.775 -0.3 0.02125923
-0.825 -0.5 0.00102608
-0.975 -0.3 0.00342436
-0.925 -0.4 0.00057791
-0.975 -0.5 4.68e-06
-0.875 -0.3 0.00396497
-1.025 -0.4 2.488e-05
-0.725 -0.4 0.00286939
-1.075 -0.3 0.00016108
-0.275 -0.2 0.00066762
-0.175 -0.1 0.00030648
-0.075 0.25 6.24e-06
-1.075 -0.1 0.00231159
-0.975 -0.1 0.01136033
-1.075 0.0 0.00446728
-1.225 -0.05 0.0003073
-0.975 0.05 0.01199772
-0.875 0.0 0.05213792
-1.175 0.1 0.00017028
-0.775 0.35 0.00294565
-0.625 0.0 0.09223249
-0.525 0.0 0.03465471
-0.475 -0.1 0.02455632
-0.575 -0.1 0.06260141
-0.675 0.15 0.04971999
-0.725 0.45 0.00076001
-0.875 0.4 0.00172665
-0.725 0.0 0.07431754
-0.825 0.25 0.01148239
-0.725 0.25 0.01864176
-0.575 0.1 0.05975507
-0.925 0.5 1.784e-05
-0.675 -0.1 0.08227146
-0.975 0.4 7.577e-05
-0.975 0.25 0.00459484
-1.075 0.35 0.00011521
-0.875 0.15 0.02396117
-1.025 0.15 0.00810702
-1.125 0.2 0.00041436
-0.375 -0.05 0.00934652
-0.425 0.05 0.02578004
-0.375 -0.15 0.00644546
-0.875 -0.15 0.02483849
-0.575 -0.25 0.02328083
-0.675 -0.25 0.02356145
-0.625 -0.4 0.00589832
-0.675 -0.5 0.0003326
-0.525 -0.4 0.00105141
-0.525 0.2 0.01473082
-0.625 0.25 0.01992614
-1.025 -0.2 0.00246143
-1.125 -0.2 0.00059266
-0.775 0.15 0.03776554
-0.775 -0.1 0.09061965
-0.375 -0.3 0.00078281
-0.475 -0.25 0.01921912
