0.125 -0.1 4.600864e-06
0.175 -0.2 1.29248e-07
-0.025 -0.05 6.6083648e-05
0.225 -0.05 2.5431e-07
0.025 -0.2 9.558666e-06
-0.075 -0.15 8.4506131e-05
0.275 -0.25 3.504e-09
-1.075 0.6 2.055806e-06
-0.975 0.55 0.000115724996
-1.175 0.65 7.136e-09
-1.025 0.7 1.784e-08
-0.975 0.35 0.00265025615
-0.875 0.45 0.000914167266
-0.875 0.6 2.0291684e-05
-1.075 0.5 0.000285377215
-0.925 0.7 6.724134e-06
-1.175 0.55 1.4833922e-05
-0.325 0.5 8.9754546e-05
-0.475 0.55 6.5414059e-05
-0.325 0.6 1.415514e-06
-0.225 0.55 1.057522e-06
-0.325 0.7 3.1392e-08
-0.225 0.65 4.1745e-08
-0.475 0.65 0.000178615302
-0.575 0.6 4.9146435e-05
-0.125 0.6 1.5622e-08
0.125 1.38777878078e-17 2.671749e-06
0.025 0.1 5.3380134e-05
0.225 0.1 6.37061e-07
0.125 0.2 3.0718e-06
0.025 0.3 3.054356e-06
0.225 0.25 1.96119e-07
0.325 0.2 5.7152e-08
-0.075 0.2 6.7956982e-05
0.425 1.38777878078e-17 3.13e-09
-0.175 0.25 0.000435467676
-0.125 0.35 7.2252812e-05
-0.275 0.4 0.000258557678
-0.125 0.5 8.50037e-07
-0.025 0.4 6.154035e-06
-0.575 0.4 0.001392690159
-0.475 0.4 0.001442402527
-0.425 0.3 0.002455977523
0.125 0.35 1.129056e-06
-0.125 1.38777878078e-17 0.000150343432
-0.175 0.1 0.00041082886
0.075 0.55 1.28811e-07
-0.225 -0.05 0.001619675765
-0.775 0.5 0.001022774945
-0.675 0.4 0.002892635038
-0.625 0.5 0.000715123148
-0.675 0.65 4.0745715e-05
-0.775 0.65 1.9538487e-05
-0.325 0.25 0.003405368509
-1.325 0.35 4.614351e-06
-1.125 0.3 0.000789499761
-1.225 0.2 0.000499685473
-1.325 0.2 0.000195325222
-1.425 0.3 2.5464e-07
-1.175 0.1 0.001874701311
-1.275 0.1 0.000562378415
-1.075 0.15 0.008430699806
-1.225 0.35 0.000187201278
-1.025 0.25 0.004106393547
-1.275 0.45 3.4876806e-05
-1.425 0.05 2.5258216e-05
-1.325 -0.05 0.000170689314
-1.425 -0.1 5.359326e-06
-1.325 -0.15 9.2732553e-05
-1.225 -0.15 0.001301182845
-1.475 0.2 1.49926e-07
-1.225 0.0 0.00144369074
-0.975 0.15 0.012766887807
-1.375 0.45 3.58296e-07
-0.225 -0.25 0.000555610034
-0.325 -0.4 0.000265756234
-0.175 -0.35 0.000111895803
-0.125 -0.45 1.3050268e-05
-0.375 -0.25 0.004245172463
-0.325 -0.1 0.004919992457
-0.675 -0.6 3.3645778e-05
-0.525 -0.5 0.000385893083
-0.625 -0.5 0.000284133348
-0.675 -0.7 6.61687e-06
-0.575 -0.65 2.3385981e-05
-0.725 -0.45 0.001802750016
-0.775 -0.65 3.0091671e-05
-0.775 -0.55 0.000161901415
-1.225 -0.3 0.000349685517
-1.375 -0.3 1.4733923e-05
-1.275 -0.45 8.572354e-06
-1.125 -0.2 0.002821753462
-1.075 -0.35 0.001569451442
-1.025 -0.2 0.011475542147
-0.425 -0.45 0.000733105673
-0.725 -0.15 0.07019934632
-0.575 -0.15 0.047810092022
-0.525 -0.35 0.008050818027
-0.375 -0.55 6.1422866e-05
-0.625 -0.25 0.030575758464
-1.075 -0.55 2.3418292e-05
-1.175 -0.5 0.000117064224
-0.925 -0.5 0.000417107943
-1.025 -0.45 0.000394145745
-1.075 -0.65 4.537356e-06
-0.975 -0.6 4.6278224e-05
-0.975 -0.35 0.003277264374
-1.425 -0.2 6.988787e-06
-0.275 0.15 0.001666121649
-0.825 -0.45 0.001126634642
-0.675 -0.35 0.011106585047
-0.875 -0.6 8.6541988e-05
-0.775 -0.35 0.005754556099
-0.925 -0.25 0.028411762182
-0.875 -0.7 9.682612e-06
-0.525 0.25 0.008132988442
-0.375 0.1 0.007112774231
-0.275 0.05 0.003097164653
-1.075 0.0 0.012722017782
-0.075 -0.3 4.1048963e-05
-0.425 -0.15 0.014269269065
-0.625 0.25 0.018651626092
-0.475 -0.6 3.272799e-06
-0.925 0.25 0.011689665031
-1.075 -0.1 0.011699092153
-0.875 -0.35 0.003340946417
-0.475 0.15 0.023295524405
-0.825 0.35 0.0059775721
-0.775 0.25 0.03783717291
-0.425 1.38777878078e-17 0.026949240201
-0.825 -0.25 0.017543373941
-0.975 -0.05 0.033435116071
-0.875 0.15 0.029584896469
-0.925 0.05 0.039288429005
-0.675 0.15 0.042380345269
-0.575 0.15 0.023561736519
-0.825 -0.1 0.077992026326
-0.575 1.38777878078e-17 0.088331278895
-0.825 0.05 0.08650478825
-0.675 1.38777878078e-17 0.084074070223
