0.675 1.38777878078e-17 9.5778e-11
0.575 0.2 3.9125e-11
0.575 1.38777878078e-17 6.087977e-10
0.725 0.1 1.8154e-11
0.625 0.3 6.26e-13
0.475 0.2 9.4437162e-09
0.525 0.1 6.5043585e-09
0.625 0.1 5.192212e-10
0.625 -0.1 1.474092e-10
0.375 0.05 1.627052694e-07
0.325 -0.25 5.79468648e-08
0.475 -0.2 4.099484e-09
0.375 -0.35 2.5447708e-09
0.275 -0.4 2.09880578e-08
0.575 -0.25 3.64024e-11
0.375 -0.15 1.196319366e-07
0.475 -0.4 1.79964e-11
0.475 -0.55 1.4016e-12
0.325 -0.5 4.1441946e-09
0.225 -0.3 3.776134998e-07
0.425 -0.05 5.09625293e-08
0.525 -0.1 1.3239502e-09
0.725 -0.15 1.08298e-10
0.775 -0.05 1.1268e-11
0.025 0.6 3.016306638e-07
-0.075 0.7 4.4296546e-09
-0.275 0.65 1.193027918e-06
-0.125 0.6 5.155958515e-07
-0.075 0.9 4.75039e-11
-0.175 0.75 2.4138686e-09
0.225 0.7 4.133739e-10
0.075 0.75 6.940454e-10
-0.025 0.5 1.9562992501e-06
-0.025 0.8 2.824881e-10
0.125 0.65 4.5971356e-09
0.275 -0.05 2.2569930737e-06
0.375 0.2 8.46826165e-08
0.275 0.15 3.0460755691e-06
-0.275 0.8 1.669175845e-07
-0.375 0.75 4.13740312e-07
-0.275 0.55 8.6823720314e-06
0.125 0.5 3.084621282e-07
0.225 0.6 3.73482865e-08
0.375 0.5 1.5451647e-09
0.225 0.45 1.898780362e-07
0.075 0.4 5.5925808554e-06
0.075 0.15 2.22903239024e-05
0.125 0.3 3.6753870142e-06
-0.125 0.25 0.000330397567838
0.025 0.3 2.63955258679e-05
0.275 0.35 1.588563084e-07
0.425 0.35 7.1458534e-09
0.225 0.25 2.4943933023e-06
0.075 -0.25 8.3355354902e-06
0.125 -0.35 8.087007121e-07
0.175 -0.45 4.56333086e-08
0.225 -0.15 1.7590066701e-06
0.125 -0.1 1.45565096389e-05
-1.225 0.6 1.8909178606e-06
-1.125 0.65 1.04937548112e-05
-1.325 0.65 1.366828757e-07
-1.225 0.7 6.435994868e-07
-1.075 0.55 0.000168402301146
-1.125 0.75 1.33457127e-06
-1.175 0.5 0.000160265602304
-1.025 0.7 3.3900243944e-06
-1.525 0.25 2.09970097778e-05
-1.625 0.1 2.8794098515e-06
-1.625 0.25 3.5890252826e-06
-1.675 0.35 4.074727484e-07
-1.525 0.1 2.85929513234e-05
-1.675 1.38777878078e-17 7.952125336e-07
-1.575 1.38777878078e-17 1.0634728296e-05
-1.425 0.25 8.74472060643e-05
-1.725 0.1 1.42714602e-07
-1.725 0.25 4.865304008e-07
-1.425 0.1 0.000106039346277
0.175 0.05 1.10165359976e-05
-0.325 0.45 0.000245607694173
-0.425 0.65 1.30998447591e-05
-0.475 0.55 0.000153023850622
-0.175 0.5 2.4002257896e-05
-0.225 0.4 0.000177079299138
-0.075 0.4 3.98662388898e-05
-1.425 0.6 4.550057452e-07
-1.475 0.4 5.4275852054e-06
-1.375 0.45 1.70443020813e-05
-1.275 0.35 0.000267723228343
-1.675 0.5 2.5485006e-09
-1.325 0.55 5.6150380109e-06
-1.175 0.3 0.0013526539441
-1.525 0.55 2.705182469e-07
-1.575 0.35 2.8708039149e-06
-0.025 -0.45 5.7190407927e-06
0.075 -0.5 2.677200068e-07
-0.125 -0.5 1.22001927896e-05
0.125 -0.6 1.85288712e-08
0.025 -0.65 3.9797044e-09
-0.075 -0.6 7.641715344e-07
0.025 -0.35 1.97780522876e-05
-1.425 0.7 3.466598896e-07
-1.375 0.8 1.4876738e-09
-1.425 -0.3 6.34222228211e-05
-1.525 -0.45 2.2319046485e-06
-1.325 -0.4 4.87239155469e-05
-1.625 -0.35 1.248412547e-07
-1.525 -0.3 1.20586408578e-05
-1.425 -0.45 1.11312875683e-05
-1.275 -0.3 0.000253020620641
-1.625 -0.65 6.9918831e-09
-1.525 -0.7 1.2376374e-08
-1.425 -0.6 7.9320424e-07
-1.575 -0.55 3.07803171e-08
-1.275 -0.6 8.8144657221e-06
-1.275 -0.7 6.127918967e-07
-1.375 -0.7 7.322908427e-07
-1.525 -0.15 5.96519986222e-05
-1.625 -0.2 3.6414620168e-06
-1.425 -1.38777878078e-17 0.000228631625465
-1.425 -0.15 0.00018411991513
-1.725 -0.3 2.44582436e-08
-1.775 -0.05 1.5252572e-08
-1.675 -0.1 1.5031074466e-06
-0.875 -0.5 0.00107433443328
-0.875 -0.35 0.00995511623596
-0.775 -0.55 0.000792806333877
-0.775 -0.4 0.00363130090681
-0.975 -0.7 7.7743112097e-06
-0.975 -0.8 4.0951808243e-06
-1.075 -0.85 1.947199486e-07
-1.075 -0.75 2.1416583577e-06
-1.175 -0.7 7.965369186e-07
-1.075 -0.65 3.54662351876e-05
-1.175 -0.8 3.010611298e-07
-0.825 -0.65 0.000129662089666
0.075 0.0 5.48756063536e-05
-0.825 -0.75 6.1030979579e-06
-1.075 -0.45 0.000566943175916
-1.025 -0.55 0.000185117908831
-0.925 -0.6 0.000473825514413
-1.125 -0.55 6.37548767401e-05
-1.225 -0.5 0.000119874032212
-0.475 -0.55 0.000194156490224
-0.275 -0.55 2.53086782391e-05
-0.425 -0.7 3.3372277292e-06
-0.325 -0.65 4.6985103685e-06
-0.325 -0.4 0.000382687132496
-0.575 -0.8 8.030592331e-07
-0.175 -0.65 2.62815774e-08
-0.675 -0.65 2.40318269123e-05
-0.425 -0.45 0.00127267426708
-0.625 -0.55 0.000278125832628
-0.575 -0.65 8.0704506644e-06
-0.975 0.6 5.11505662124e-05
-0.925 0.7 1.36120350413e-05
-0.975 0.5 0.000539438696277
-1.325 -0.05 0.00152697849188
-0.975 0.8 1.8750394488e-06
-0.825 0.75 5.2385651983e-06
-0.825 0.6 0.000105443907672
-0.625 0.45 0.00188178077655
-0.575 0.55 0.0002398432706
-0.675 0.65 4.41065153817e-05
-0.575 0.7 1.47470622433e-05
-0.675 0.75 5.6666011846e-06
-0.725 0.55 0.000425821548333
-0.575 0.8 3.107246311e-06
-0.725 -0.75 3.3055214839e-06
-0.675 -0.9 3.375451637e-07
-0.825 -0.85 3.38894076e-07
-1.325 0.2 0.000749588688835
-0.025 -0.15 0.000112231120269
-0.125 -0.1 0.000651197822903
-0.025 -0.05 0.00015706663101
-1.175 -0.35 0.00196929483784
-1.325 -0.2 0.000789269036535
-1.225 -0.2 0.00288938969025
-0.475 0.8 2.5126491571e-06
-0.675 -0.4 0.00369289228113
-0.825 -0.25 0.0280342495357
-0.125 -0.25 0.00018231114365
-0.175 -0.35 0.000146551503715
-0.275 -0.3 0.000678284621752
-0.975 -0.45 0.000995932387166
-0.525 0.45 0.00171095327441
-0.025 0.2 0.000108099057851
-0.025 0.1 0.000147642242379
-1.275 0.1 0.00195702515265
-1.125 0.4 0.000940860848534
-0.575 -0.45 0.00120527393194
-0.475 0.9 5.535424411e-07
-0.875 0.5 0.000529298637573
-0.425 0.35 0.00151184381296
-0.225 -0.45 5.00522096958e-05
-1.225 0.2 0.0033262248265
-0.275 0.3 0.000591088300793
-0.725 0.4 0.00542198424794
-0.125 0.05 0.000584816643473
-0.225 0.2 0.00210532154417
-0.525 -0.35 0.00399208733638
-0.375 0.25 0.00323503896463
-1.175 0.05 0.00600477083333
-0.225 -0.15 0.00183280135041
-0.375 -0.25 0.00341418171448
-1.125 -0.25 0.00629596400981
-1.025 -0.35 0.0037219396825
-0.275 1.38777878078e-17 0.00410542084299
-1.125 0.2 0.00293222445542
-1.075 0.3 0.00513007395354
-1.025 0.4 0.00358712299073
-0.925 0.4 0.00310978202185
-0.525 0.3 0.00970699562501
-1.225 -0.05 0.00668633033677
-1.125 -0.05 0.011166842995
-0.325 0.1 0.00779512161039
-1.075 0.1 0.011970239873
-0.475 0.2 0.0151491530946
-0.625 0.3 0.00745142516118
-0.975 -0.25 0.0211347408198
-0.775 0.3 0.0150111492782
-0.825 0.4 0.00587067259558
-0.875 0.25 0.0200320728597
-0.575 -0.25 0.0110752506842
-0.475 -0.2 0.0147943382599
-0.325 -0.1 0.00873552219522
-0.725 -0.3 0.0131066863812
-0.425 -1.38777878078e-17 0.0205715582323
-0.975 0.25 0.0155822176068
-0.925 0.0 0.0433875517902
-1.075 -0.15 0.0169357408856
-0.675 -0.2 0.0164282582305
-0.775 -0.15 0.0278740847907
-0.575 0.1 0.0269267422888
-0.675 0.2 0.0265477172074
-0.975 -0.1 0.0372631291232
-1.025 -1.38777878078e-17 0.0212349922247
-0.975 0.1 0.0320991253199
-0.825 0.15 0.0461607875747
-0.525 -0.1 0.0276409359412
-0.625 -0.1 0.0371961927844
-0.875 -0.1 0.0460315779668
-0.675 0.05 0.0600509787195
-0.575 -1.38777878078e-17 0.0367662657201
-0.725 -0.05 0.0538988829987
-0.475 0.1 0.0197189722269
-0.775 0.05 0.0709540963919
